{"learner":{"attributes":{"best_iteration":"59","best_score":"2.325141149023666","scikit_learn":"{\"_estimator_type\": \"regressor\"}"},"feature_names":["Diesel_Gasoline_Spread","Diesel_Jet_Spread","Gasoline_Jet_Spread","Month","Quarter","crude_stocks","distillate_stocks","gasoline_stocks","refinery_utilization","crude_stocks_change","gasoline_stocks_change","distillate_stocks_change","Gasoline_Crack_lag_7","Gasoline_Crack_lag_14","Gasoline_Crack_lag_30","Gasoline_Crack_ma_60","Gasoline_Crack_std_60","Gasoline_Crack_ma_90","Gasoline_Crack_std_90","Gasoline_Crack_pct_change_30","Gasoline_Crack_pct_change_60","month","quarter","day_of_year","Gasoline_Crack_baseline_252","Vol_Regime_Low","Vol_Regime_Medium","Vol_Regime_High"],"feature_types":["float","float","float","int","int","float","float","float","float","float","float","float","float","float","float","float","float","float","float","float","float","int","int","int","float","int","int","int"],"gradient_booster":{"model":{"cats":{"enc":[],"feature_segments":[],"sorted_idx":[]},"gbtree_model_param":{"num_parallel_tree":"1","num_trees":"80"},"iteration_indptr":[0,1,2,3,4,5,6,7,8,9,10,11,12,13,14,15,16,17,18,19,20,21,22,23,24,25,26,27,28,29,30,31,32,33,34,35,36,37,38,39,40,41,42,43,44,45,46,47,48,49,50,51,52,53,54,55,56,57,58,59,60,61,62,63,64,65,66,67,68,69,70,71,72,73,74,75,76,77,78,79,80],"tree_info":[0,0,0,0,0,0,0,0,0,0,0,0,0,0,0,0,0,0,0,0,0,0,0,0,0,0,0,0,0,0,0,0,0,0,0,0,0,0,0,0,0,0,0,0,0,0,0,0,0,0,0,0,0,0,0,0,0,0,0,0,0,0,0,0,0,0,0,0,0,0,0,0,0,0,0,0,0,0,0,0],"trees":[{"base_weights":[-1.2410968E-1,-4.277275E0,1.400445E1,-8.301686E0,7.830473E-1,1.1319311E1,2.6408747E1,-1.07114525E1,-5.3753414E0,2.7208102E0,-3.3439353E0,1.3392902E1,-6.5452266E-1,8.0951446E-1,1.5364553E0,-9.4027007E-1,-9.919753E0,-6.0933695E0,1.7099422E0,1.8626572E0,8.551372E0,-7.5663495E0,-1.4605248E0,1.1970042E0,1.2541509E1,4.323102E0,-4.9690366E0,-1.1010183E1,-7.1238694E0,-6.8721657E0,-2.4159386E0,4.1077396E-1,-1.2002835E0,-4.5239392E-1,2.788606E0,5.082727E-1,3.655684E0,-2.0421596E-1,-8.166631E0,-2.5913925E0,1.0405706E0,1.4129635E1,9.119344E0,1.7974076E0,3.296012E-1,-1.0610445E0,-3.0916402E-1,-6.1016303E-1,-4.968698E-1,-4.4366226E-2,-3.7624252E-1,-3.9701208E-1,-1.9455418E-1,-3.3741358E-1,-3.7983064E-2,2.8713265E-2,-2.2546624E-1,2.0125303E-2,-1.234761E-1,3.6861822E-1,1.1649741E-1,2.8989825E-2,2.2258404E-1,-4.154125E-1,-1.08572654E-1,-5.7516653E-2,-1.6112055E-1,4.1835397E-3,2.4257179E-1,5.565021E-1,8.063567E-1,2.7695343E-1,5.452185E-1,2.0456474E-2,1.09598935E-1,-5.8858957E-2,-1.4912653E-2],"categories":[],"categories_nodes":[],"categories_segments":[],"categories_sizes":[],"default_left":[0,0,0,0,0,0,0,0,0,0,0,0,0,0,0,0,0,0,0,0,0,0,0,0,0,0,0,0,0,0,0,0,0,0,0,0,0,0,0,0,0,0,0,0,0,0,0,0,0,0,0,0,0,0,0,0,0,0,0,0,0,0,0,0,0,0,0,0,0,0,0,0,0,0,0,0,0],"id":0,"left_children":[1,3,5,7,9,11,13,15,17,19,21,23,25,-1,-1,-1,27,29,31,33,35,37,39,-1,41,43,45,47,49,51,53,-1,55,57,59,-1,61,-1,63,65,67,69,71,73,-1,75,-1,-1,-1,-1,-1,-1,-1,-1,-1,-1,-1,-1,-1,-1,-1,-1,-1,-1,-1,-1,-1,-1,-1,-1,-1,-1,-1,-1,-1,-1,-1],"loss_changes":[5.9148887E4,1.5870693E4,7.3284375E3,3.0029043E3,2.7760996E3,4.726246E3,1.2683809E3,1.3321445E3,1.01773047E3,1.1649005E3,8.71681E2,1.1544844E3,6.4428656E2,0E0,0E0,0E0,5.8618555E2,4.989121E2,3.695799E2,4.4499054E2,1.9989966E2,3.7711426E1,2.2331235E2,0E0,6.9724023E2,6.837988E1,6.936334E1,7.711914E1,1.5337012E2,4.4033887E2,2.316666E2,0E0,8.479832E1,1.0446056E2,2.939746E2,0E0,1.9454514E1,0E0,5.7320557E0,4.5397247E1,9.075949E1,4.3165625E2,2.6553516E2,3.4853935E0,0E0,9.18355E-2,0E0,0E0,0E0,0E0,0E0,0E0,0E0,0E0,0E0,0E0,0E0,0E0,0E0,0E0,0E0,0E0,0E0,0E0,0E0,0E0,0E0,0E0,0E0,0E0,0E0,0E0,0E0,0E0,0E0,0E0,0E0],"parents":[2147483647,0,0,1,1,2,2,3,3,4,4,5,5,6,6,7,7,8,8,9,9,10,10,11,11,12,12,16,16,17,17,18,18,19,19,20,20,21,21,22,22,24,24,25,25,26,26,27,27,28,28,29,29,30,30,32,32,33,33,34,34,36,36,38,38,39,39,40,40,41,41,42,42,43,43,45,45],"right_children":[2,4,6,8,10,12,14,16,18,20,22,24,26,-1,-1,-1,28,30,32,34,36,38,40,-1,42,44,46,48,50,52,54,-1,56,58,60,-1,62,-1,64,66,68,70,72,74,-1,76,-1,-1,-1,-1,-1,-1,-1,-1,-1,-1,-1,-1,-1,-1,-1,-1,-1,-1,-1,-1,-1,-1,-1,-1,-1,-1,-1,-1,-1,-1,-1],"split_conditions":[2.51154E1,1.43258E1,3.91824E1,9.0387E0,2.39E2,2.41E2,4.4158268E1,1.25148E5,1.118276E2,4.5227633E0,-3.6855938E1,1.05264E5,4.8196697E0,8.0951446E-1,1.5364553E0,-9.4027007E-1,4.1804474E1,2.4462284E1,1.18602E5,3E0,2.1273E1,1.6617352E1,7.0295396E0,1.1970042E0,2.26723E5,-3.6193577E1,2.75814E1,1.55001E5,-3.056256E0,1.23086E5,4.5227633E0,4.1077396E-1,6.09E-1,1.22811E5,-4.465608E0,5.082727E-1,2.89086E1,-2.0421596E-1,3.7458E1,1.5670418E1,-1.1878246E1,2.539913E-1,8.1375305E1,-4.4956947E1,3.296012E-1,-5.568696E0,-3.0916402E-1,-6.1016303E-1,-4.968698E-1,-4.4366226E-2,-3.7624252E-1,-3.9701208E-1,-1.9455418E-1,-3.3741358E-1,-3.7983064E-2,2.8713265E-2,-2.2546624E-1,2.0125303E-2,-1.234761E-1,3.6861822E-1,1.1649741E-1,2.8989825E-2,2.2258404E-1,-4.154125E-1,-1.08572654E-1,-5.7516653E-2,-1.6112055E-1,4.1835397E-3,2.4257179E-1,5.565021E-1,8.063567E-1,2.7695343E-1,5.452185E-1,2.0456474E-2,1.09598935E-1,-5.8858957E-2,-1.4912653E-2],"split_indices":[13,13,13,15,23,23,20,6,20,16,19,6,18,0,0,0,20,24,6,21,0,24,19,0,7,20,0,6,1,6,16,0,0,6,1,0,0,0,14,24,20,19,20,20,0,1,0,0,0,0,0,0,0,0,0,0,0,0,0,0,0,0,0,0,0,0,0,0,0,0,0,0,0,0,0,0,0],"split_type":[0,0,0,0,0,0,0,0,0,0,0,0,0,0,0,0,0,0,0,0,0,0,0,0,0,0,0,0,0,0,0,0,0,0,0,0,0,0,0,0,0,0,0,0,0,0,0,0,0,0,0,0,0,0,0,0,0,0,0,0,0,0,0,0,0,0,0,0,0,0,0,0,0,0,0,0,0],"sum_hessian":[1.006E3,7.78E2,2.28E2,4.33E2,3.45E2,1.89E2,3.9E1,2.36E2,1.97E2,2.35E2,1.1E2,1.61E2,2.8E1,1.3E1,2.6E1,1.9E1,2.17E2,1.79E2,1.8E1,2.06E2,2.9E1,3.3E1,7.7E1,1E1,1.51E2,1.3E1,1.5E1,1.54E2,6.3E1,1.47E2,3.2E1,5E0,1.3E1,5.9E1,1.47E2,2.1E1,8E0,6E0,2.7E1,5.3E1,2.4E1,1.01E2,5E1,7E0,6E0,4E0,1.1E1,6.8E1,8.6E1,4E0,5.9E1,1.07E2,4E1,8E0,2.4E1,9E0,4E0,4.2E1,1.7E1,1.2E1,1.35E2,2E0,6E0,2.6E1,1E0,1.7E1,3.6E1,2E1,4E0,4.3E1,5.8E1,1.8E1,3.2E1,2E0,5E0,3E0,1E0],"tree_param":{"num_deleted":"0","num_feature":"28","num_nodes":"77","size_leaf_vector":"1"}},{"base_weights":[1.3640781E-1,-4.1616006E0,1.3734156E1,-9.090184E0,1.4136304E-1,1.1112326E1,2.7676731E1,-1.22026E1,-7.7483234E0,-6.643478E0,9.073055E-1,9.8891E-1,1.1803413E1,1.4640592E0,8.308739E-1,-1.52835455E1,-5.667056E-1,-6.8940597E0,-9.097966E0,-8.233761E0,-3.64405E0,-2.2515295E0,2.0195062E0,-1.8582042E-1,2.6790974E-1,8.586957E0,1.4035351E1,-8.3473104E-1,-3.8556987E-1,-4.952558E-1,-6.5743527E0,-9.188197E0,-1.6641545E-1,-4.4810438E-1,-2.156163E-1,-3.4263077E-1,-4.7159705E0,-3.1719494E0,2.1581585E0,1.0908443E0,3.8854427E0,-1.6019205E0,1.0545254E0,4.8760247E0,9.438502E0,7.268716E0,1.4713778E1,-3.357509E-1,-6.6042915E-2,-1.032666E-1,-4.6221957E-1,2.500019E-2,-3.3914518E-2,-2.4462526E-1,-6.935225E-2,-3.347611E-1,-1.01126865E-1,2.7614138E-1,-3.7469607E-2,-1.3627337E-2,1.0747379E-1,7.904436E-2,3.1032225E-1,1.4322805E-2,-1.0184435E-1,2.8678855E-2,7.522987E-2,1.2888886E-1,3.1135103E-1,5.6051403E-1,3.772727E-1,1.7157479E-1,4.3791944E-1,4.138213E-1,7.5568074E-1],"categories":[],"categories_nodes":[],"categories_segments":[],"categories_sizes":[],"default_left":[0,0,0,0,0,0,0,0,0,0,0,0,0,0,0,0,0,0,0,0,0,0,0,0,0,0,0,0,0,0,0,0,0,0,0,0,0,0,0,0,0,0,0,0,0,0,0,0,0,0,0,0,0,0,0,0,0,0,0,0,0,0,0,0,0,0,0,0,0,0,0,0,0,0,0],"id":1,"left_children":[1,3,5,7,9,11,13,15,17,19,21,23,25,-1,-1,27,-1,29,31,33,35,37,39,41,-1,43,45,-1,-1,-1,47,49,-1,-1,-1,51,53,55,57,59,61,63,65,67,69,71,73,-1,-1,-1,-1,-1,-1,-1,-1,-1,-1,-1,-1,-1,-1,-1,-1,-1,-1,-1,-1,-1,-1,-1,-1,-1,-1,-1,-1],"loss_changes":[5.7915953E4,1.5970541E4,8.392551E3,1.371377E3,2.100337E3,1.4015547E3,1.6995117E2,1.0505469E2,2.2320996E2,1.6556335E2,1.2798601E3,7.285391E1,1.2362949E3,0E0,0E0,8.495801E1,0E0,8.50542E1,1.783496E1,3.5610718E1,5.500589E1,3.924281E2,4.6189124E2,2.2766712E1,0E0,2.0677979E2,3.980254E2,0E0,0E0,0E0,9.7543945E1,1.7331543E1,0E0,0E0,0E0,1.7533398E0,2.6593018E-1,3.063844E2,1.7044882E2,2.6182837E2,4.6623865E2,5.5117617E0,6.52226E-1,3.673181E1,1.3007324E2,3.854004E1,1.2972852E2,0E0,0E0,0E0,0E0,0E0,0E0,0E0,0E0,0E0,0E0,0E0,0E0,0E0,0E0,0E0,0E0,0E0,0E0,0E0,0E0,0E0,0E0,0E0,0E0,0E0,0E0,0E0,0E0],"parents":[2147483647,0,0,1,1,2,2,3,3,4,4,5,5,6,6,7,7,8,8,9,9,10,10,11,11,12,12,15,15,17,17,18,18,19,19,20,20,21,21,22,22,23,23,25,25,26,26,30,30,31,31,35,35,36,36,37,37,38,38,39,39,40,40,41,41,42,42,43,43,44,44,45,45,46,46],"right_children":[2,4,6,8,10,12,14,16,18,20,22,24,26,-1,-1,28,-1,30,32,34,36,38,40,42,-1,44,46,-1,-1,-1,48,50,-1,-1,-1,52,54,56,58,60,62,64,66,68,70,72,74,-1,-1,-1,-1,-1,-1,-1,-1,-1,-1,-1,-1,-1,-1,-1,-1,-1,-1,-1,-1,-1,-1,-1,-1,-1,-1,-1,-1],"split_conditions":[2.43038E1,1.16592E1,3.91824E1,6.5718E0,-3.6855938E1,2.1567E5,1.81E2,-7.8172935E1,-2.57544E0,-5.6107082E1,1.58546E1,3.872105E1,2.86324E1,1.4640592E0,8.308739E-1,-9.64236E0,-5.667056E-1,-6.1447327E1,2.642472E0,1.88276E1,-8.12E2,5.447184E1,2.02095E1,2.32194E1,2.6790974E-1,4.698957E0,-3.8395836E1,-8.3473104E-1,-3.8556987E-1,-4.952558E-1,2.80184E1,4.52182E5,-1.6641545E-1,-4.4810438E-1,-2.156163E-1,2.48346E1,-3.62712E0,1.140385E1,1.17923E5,-4.302816E0,1.6282656E1,9.07E1,-3.0165745E1,2.5383E1,-1.332E3,-2.8137815E1,2.0437014E1,-3.357509E-1,-6.6042915E-2,-1.032666E-1,-4.6221957E-1,2.500019E-2,-3.3914518E-2,-2.4462526E-1,-6.935225E-2,-3.347611E-1,-1.01126865E-1,2.7614138E-1,-3.7469607E-2,-1.3627337E-2,1.0747379E-1,7.904436E-2,3.1032225E-1,1.4322805E-2,-1.0184435E-1,2.8678855E-2,7.522987E-2,1.2888886E-1,3.1135103E-1,5.6051403E-1,3.772727E-1,1.7157479E-1,4.3791944E-1,4.138213E-1,7.5568074E-1],"split_indices":[12,12,12,12,19,7,23,19,1,19,12,15,12,0,0,2,0,19,2,12,10,19,19,13,0,18,19,0,0,0,14,5,0,0,0,0,1,15,6,2,15,8,2,12,10,2,15,0,0,0,0,0,0,0,0,0,0,0,0,0,0,0,0,0,0,0,0,0,0,0,0,0,0,0,0],"split_type":[0,0,0,0,0,0,0,0,0,0,0,0,0,0,0,0,0,0,0,0,0,0,0,0,0,0,0,0,0,0,0,0,0,0,0,0,0,0,0,0,0,0,0,0,0,0,0,0,0,0,0,0,0,0,0,0,0,0,0,0,0,0,0,0,0,0,0,0,0,0,0,0,0,0,0],"sum_hessian":[9.89E2,7.52E2,2.37E2,3.5E2,4.02E2,2.01E2,3.6E1,1.03E2,2.47E2,4E1,3.62E2,1.3E1,1.88E2,3E1,6E0,1.9E1,8.4E1,1.55E2,9.2E1,2.5E1,1.5E1,9.4E1,2.68E2,1.1E1,2E0,7.9E1,1.09E2,1.5E1,4E0,1.2E1,1.43E2,9E1,2E0,2E1,5E0,4E0,1.1E1,7.8E1,1.6E1,1.8E2,8.8E1,5E0,6E0,1.6E1,6.3E1,1.1E1,9.8E1,1.39E2,4E0,1E0,8.9E1,1E0,3E0,1E1,1E0,1.8E1,6E1,7E0,9E0,7.9E1,1.01E2,4.5E1,4.3E1,1E0,4E0,4E0,2E0,7E0,9E0,3E1,3.3E1,4E0,7E0,7E0,9.1E1],"tree_param":{"num_deleted":"0","num_feature":"28","num_nodes":"75","size_leaf_vector":"1"}},{"base_weights":[2.4615732E-1,-3.9960532E0,1.2802116E1,-7.7552147E0,8.279692E-1,1.0275427E1,2.5431446E1,-1.0986088E1,-6.2315993E0,-4.5994015E0,1.3551267E0,2.766925E-1,1.1043141E1,7.4808466E-1,1.3954256E0,-1.6736938E1,-1.0429222E1,-7.1864395E0,-4.3650665E0,-7.2099274E-1,-5.5798125E0,-9.1302824E-1,2.0983782E0,-1.4446524E0,3.3863761E0,7.7758718E0,1.3345268E1,-8.8678914E-1,-1.9368325E-1,-1.1167768E1,-8.617546E0,-7.825466E0,-6.0321774E0,-5.233831E0,4.6876287E-1,-1.0036596E0,2.43752E-2,-6.254205E0,-1.5724431E-1,-1.450369E0,3.3961746E-1,1.2831314E0,3.7008936E0,-2.3334937E0,8.865585E-2,2.589794E-1,1.1948729E0,8.332366E0,2.274436E0,4.8259397E0,1.37778845E1,-5.6610894E-1,-2.6244897E-1,-4.3543077E-1,-1.2664619E-1,-4.6110144E-1,-3.4446642E-1,-3.111391E-1,-6.419295E-2,-2.1565914E-1,-5.199143E-1,-7.965657E-2,2.6617783E-1,-1.369195E-2,-5.4742794E-2,-3.3576792E-1,-1.5383089E-1,-1.007966E-1,3.2167507E-3,-6.0018342E-2,9.314769E-2,4.0490653E-2,2.5227615E-1,1.3964749E-2,-1.4077538E-1,-4.7343303E-2,2.9212642E-2,1.0403967E-2,7.272222E-2,5.05895E-1,3.4933743E-1,-2.7519704E-3,1.2862502E-1,6.568804E-2,2.5961715E-1,3.5219008E-1,7.0894164E-1],"categories":[],"categories_nodes":[],"categories_segments":[],"categories_sizes":[],"default_left":[0,0,0,0,0,0,0,0,0,0,0,0,0,0,0,0,0,0,0,0,0,0,0,0,0,0,0,0,0,0,0,0,0,0,0,0,0,0,0,0,0,0,0,0,0,0,0,0,0,0,0,0,0,0,0,0,0,0,0,0,0,0,0,0,0,0,0,0,0,0,0,0,0,0,0,0,0,0,0,0,0,0,0,0,0,0,0],"id":2,"left_children":[1,3,5,7,9,11,13,15,17,19,21,23,25,-1,-1,27,29,31,33,35,37,39,41,43,45,47,49,-1,-1,51,53,55,57,59,61,63,-1,65,-1,67,-1,69,71,73,75,-1,77,79,81,83,85,-1,-1,-1,-1,-1,-1,-1,-1,-1,-1,-1,-1,-1,-1,-1,-1,-1,-1,-1,-1,-1,-1,-1,-1,-1,-1,-1,-1,-1,-1,-1,-1,-1,-1,-1,-1],"loss_changes":[5.2730266E4,1.3425788E4,7.7162773E3,1.9793438E3,9.360836E2,1.6089414E3,6.4574805E2,2.4817188E2,4.7656934E2,1.062475E2,5.0260126E2,9.0537544E1,1.3629531E3,0E0,0E0,5.978174E1,6.8336914E1,9.072754E1,4.1819995E2,2.880501E0,1.8099548E1,3.16242E2,2.8789514E2,1.5198418E1,1.739003E1,2.351543E2,3.4998242E2,0E0,0E0,1.7339844E1,1.0644531E-1,8.942969E1,5.626953E1,3.5454028E2,1.6864226E2,9.9527836E-2,0E0,4.2504272E0,0E0,6.0095932E1,0E0,2.1823433E2,2.8747144E2,9.602161E0,3.1192167E0,0E0,7.2193384E-1,1.09507324E2,6.3905907E0,2.186615E0,1.890293E2,0E0,0E0,0E0,0E0,0E0,0E0,0E0,0E0,0E0,0E0,0E0,0E0,0E0,0E0,0E0,0E0,0E0,0E0,0E0,0E0,0E0,0E0,0E0,0E0,0E0,0E0,0E0,0E0,0E0,0E0,0E0,0E0,0E0,0E0,0E0,0E0],"parents":[2147483647,0,0,1,1,2,2,3,3,4,4,5,5,6,6,7,7,8,8,9,9,10,10,11,11,12,12,15,15,16,16,17,17,18,18,19,19,20,20,21,21,22,22,23,23,24,24,25,25,26,26,29,29,30,30,31,31,32,32,33,33,34,34,35,35,37,37,39,39,41,41,42,42,43,43,44,44,46,46,47,47,48,48,49,49,50,50],"right_children":[2,4,6,8,10,12,14,16,18,20,22,24,26,-1,-1,28,30,32,34,36,38,40,42,44,46,48,50,-1,-1,52,54,56,58,60,62,64,-1,66,-1,68,-1,70,72,74,76,-1,78,80,82,84,86,-1,-1,-1,-1,-1,-1,-1,-1,-1,-1,-1,-1,-1,-1,-1,-1,-1,-1,-1,-1,-1,-1,-1,-1,-1,-1,-1,-1,-1,-1,-1,-1,-1,-1,-1,-1],"split_conditions":[2.40624E1,1.43258E1,3.91824E1,7.347E0,-3.6855938E1,2.1567E5,4.4158268E1,-9.454902E1,1.1139E1,-2.852E3,1.69542E1,3.64882E1,2.86324E1,7.4808466E-1,1.3954256E0,-1.3853952E1,-1.2555664E1,8.8E1,7.4571175E1,-3.505656E1,1.26846E5,4.588157E1,1.7867151E1,3.18724E1,-3.4759033E1,1.18602E5,-3.0196383E1,-8.8678914E-1,-1.9368325E-1,1.2173685E1,2.018352E0,5.971488E0,2.80184E1,4.51783E5,9.671E0,6.0525346E0,2.43752E-2,1.88276E1,-1.5724431E-1,3.4739208E0,3.3961746E-1,2.20083E5,8.54E1,-5.5297367E1,-5.6136864E1,2.589794E-1,-3.2175865E1,1.12401E5,-3.818136E0,4.7201962E0,1.7265135E1,-5.6610894E-1,-2.6244897E-1,-4.3543077E-1,-1.2664619E-1,-4.6110144E-1,-3.4446642E-1,-3.111391E-1,-6.419295E-2,-2.1565914E-1,-5.199143E-1,-7.965657E-2,2.6617783E-1,-1.369195E-2,-5.4742794E-2,-3.3576792E-1,-1.5383089E-1,-1.007966E-1,3.2167507E-3,-6.0018342E-2,9.314769E-2,4.0490653E-2,2.5227615E-1,1.3964749E-2,-1.4077538E-1,-4.7343303E-2,2.9212642E-2,1.0403967E-2,7.272222E-2,5.05895E-1,3.4933743E-1,-2.7519704E-3,1.2862502E-1,6.568804E-2,2.5961715E-1,3.5219008E-1,7.0894164E-1],"split_indices":[12,12,12,12,19,7,20,20,12,11,12,14,12,0,0,2,20,8,19,2,6,20,19,14,2,6,20,0,0,18,2,19,14,5,14,16,0,12,0,16,0,7,8,2,2,0,2,6,2,16,17,0,0,0,0,0,0,0,0,0,0,0,0,0,0,0,0,0,0,0,0,0,0,0,0,0,0,0,0,0,0,0,0,0,0,0,0],"split_type":[0,0,0,0,0,0,0,0,0,0,0,0,0,0,0,0,0,0,0,0,0,0,0,0,0,0,0,0,0,0,0,0,0,0,0,0,0,0,0,0,0,0,0,0,0,0,0,0,0,0,0,0,0,0,0,0,0,0,0,0,0,0,0,0,0,0,0,0,0,0,0,0,0,0,0,0,0,0,0,0,0,0,0,0,0,0,0],"sum_hessian":[9.88E2,7.39E2,2.49E2,4.15E2,3.24E2,2.09E2,4E1,1.31E2,2.84E2,2.8E1,2.96E2,1.5E1,1.94E2,9E0,3.1E1,9E0,1.22E2,1.86E2,9.8E1,6E0,2.2E1,7.3E1,2.23E2,1E1,5E0,8.2E1,1.12E2,8E0,1E0,8.3E1,3.9E1,1.16E2,7E1,8.3E1,1.5E1,5E0,1E0,1.6E1,6E0,6.9E1,4E0,1.49E2,7.4E1,6E0,4E0,2E0,3E0,7.4E1,8E0,6E0,1.06E2,8E1,3E0,3.8E1,1E0,4.3E1,7.3E1,6.7E1,3E0,7.2E1,1.1E1,1.1E1,4E0,1E0,4E0,1.3E1,3E0,5E1,1.9E1,2.8E1,1.21E2,2.4E1,5E1,1E0,5E0,1E0,3E0,1E0,2E0,2.9E1,4.5E1,1E0,7E0,1E0,5E0,7E0,9.9E1],"tree_param":{"num_deleted":"0","num_feature":"28","num_nodes":"87","size_leaf_vector":"1"}},{"base_weights":[1.1667102E-1,-3.6396122E0,1.165659E1,-8.746534E0,-5.03288E-1,9.494102E0,2.2718245E1,-1.1359658E1,-7.2103105E0,2.1571977E0,-3.9288018E0,-3.3143523E0,1.063948E1,7.0654994E-1,1.3164737E0,-1.4286223E1,-9.215878E0,2.637875E-1,-7.504067E0,1.4843814E0,8.107728E0,-6.12651E0,-2.4788735E0,-2.9677156E-1,7.0392525E-1,1.1781844E0,9.728876E0,-8.753894E-1,-5.967553E-1,-1.0058308E1,-3.1475702E-1,-2.725687E-1,6.4011496E-1,-6.554279E0,-8.330995E0,-1.0679415E0,2.7279487E0,1.320439E-1,4.4718322E-1,-7.6147013E0,-2.8129833E0,-4.3696856E0,-2.2557023E-1,1.3847508E-1,-4.4618368E-1,1.045869E1,2.4984171E0,-5.0788784E-1,-1.3460505E-1,-1.8123055E-2,-7.2288516E-5,5.302615E-2,1.3494111E-2,-3.4892008E-1,-2.1862248E-1,-4.1879654E-1,-1.0604451E-1,-1.3095902E-1,1.638783E-2,1.0768616E-1,3.617001E-1,-4.5943728E-1,-3.279032E-1,-5.3584106E-2,-1.7448792E-1,-1.08033024E-1,-2.613617E-1,-4.1967694E-2,2.668039E-1,2.609377E-2,-5.3034104E-2,3.8421702E-1,5.985424E-1,1.5061474E-2,1.5523344E-1],"categories":[],"categories_nodes":[],"categories_segments":[],"categories_sizes":[],"default_left":[0,0,0,0,0,0,0,0,0,0,0,0,0,0,0,0,0,0,0,0,0,0,0,0,0,0,0,0,0,0,0,0,0,0,0,0,0,0,0,0,0,0,0,0,0,0,0,0,0,0,0,0,0,0,0,0,0,0,0,0,0,0,0,0,0,0,0,0,0,0,0,0,0,0,0],"id":3,"left_children":[1,3,5,7,9,11,13,15,17,19,21,23,25,-1,-1,27,29,31,33,35,37,39,41,-1,43,-1,45,-1,-1,47,-1,49,51,53,55,57,59,-1,-1,61,63,65,67,-1,69,71,73,-1,-1,-1,-1,-1,-1,-1,-1,-1,-1,-1,-1,-1,-1,-1,-1,-1,-1,-1,-1,-1,-1,-1,-1,-1,-1,-1,-1],"loss_changes":[4.395314E4,1.2248576E4,5.7405664E3,1.0862656E3,4.3374023E3,3.1160742E3,8.683574E2,5.33375E2,4.103545E2,1.0609335E3,6.476089E2,1.937581E2,2.0421387E3,0E0,0E0,1.16737305E2,9.4154785E1,1.78924E0,8.5984375E1,7.710177E2,9.9769165E1,3.8293555E2,5.401071E2,0E0,2.0240807E1,0E0,9.342637E2,0E0,0E0,7.8168945E0,0E0,9.6963525E-2,4.9202776E-1,5.0919434E1,7.9091797E0,1.7406332E2,4.061809E2,0E0,0E0,3.2878418E1,2.8078766E1,1.1941553E2,2.0588412E2,0E0,4.1227684E0,6.002285E2,2.3041656E1,0E0,0E0,0E0,0E0,0E0,0E0,0E0,0E0,0E0,0E0,0E0,0E0,0E0,0E0,0E0,0E0,0E0,0E0,0E0,0E0,0E0,0E0,0E0,0E0,0E0,0E0,0E0,0E0],"parents":[2147483647,0,0,1,1,2,2,3,3,4,4,5,5,6,6,7,7,8,8,9,9,10,10,11,11,12,12,15,15,16,16,17,17,18,18,19,19,20,20,21,21,22,22,24,24,26,26,29,29,31,31,32,32,33,33,34,34,35,35,36,36,39,39,40,40,41,41,42,42,44,44,45,45,46,46],"right_children":[2,4,6,8,10,12,14,16,18,20,22,24,26,-1,-1,28,30,32,34,36,38,40,42,-1,44,-1,46,-1,-1,48,-1,50,52,54,56,58,60,-1,-1,62,64,66,68,-1,70,72,74,-1,-1,-1,-1,-1,-1,-1,-1,-1,-1,-1,-1,-1,-1,-1,-1,-1,-1,-1,-1,-1,-1,-1,-1,-1,-1,-1,-1],"split_conditions":[2.40624E1,1.0669507E1,3.91824E1,-2.6191738E1,2.36E2,-4.913538E1,4.4158268E1,5E0,-7.215E3,4.5617843E0,-4.9961132E1,-6.201216E0,1.05561E5,7.0654994E-1,1.3164737E0,-7.300155E1,5.258397E0,-3.126144E0,4.78513E5,3E0,8.54E1,2.4885761E1,1.9320162E1,-2.9677156E-1,2.00886E1,1.1781844E0,1.18602E5,-8.753894E-1,-5.967553E-1,5.8716E0,-3.1475702E-1,5.628E-1,-5.3256E0,1.0139071E2,2.828616E0,1.5742447E1,3.066E0,1.320439E-1,4.4718322E-1,-7.533852E1,1.15648E1,3.5347526E0,5.4705E1,1.3847508E-1,-5.4127415E1,2.196919E1,-4.172256E1,-5.0788784E-1,-1.3460505E-1,-1.8123055E-2,-7.2288516E-5,5.302615E-2,1.3494111E-2,-3.4892008E-1,-2.1862248E-1,-4.1879654E-1,-1.0604451E-1,-1.3095902E-1,1.638783E-2,1.0768616E-1,3.617001E-1,-4.5943728E-1,-3.279032E-1,-5.3584106E-2,-1.7448792E-1,-1.08033024E-1,-2.613617E-1,-4.1967694E-2,2.668039E-1,2.609377E-2,-5.3034104E-2,3.8421702E-1,5.985424E-1,1.5061474E-2,1.5523344E-1],"split_indices":[13,15,13,20,23,20,20,3,10,16,20,1,6,0,0,20,18,1,5,3,8,24,17,0,0,0,6,0,0,0,0,0,0,20,2,17,0,0,0,20,13,18,0,0,2,24,20,0,0,0,0,0,0,0,0,0,0,0,0,0,0,0,0,0,0,0,0,0,0,0,0,0,0,0,0],"split_type":[0,0,0,0,0,0,0,0,0,0,0,0,0,0,0,0,0,0,0,0,0,0,0,0,0,0,0,0,0,0,0,0,0,0,0,0,0,0,0,0,0,0,0,0,0,0,0,0,0,0,0,0,0,0,0,0,0,0,0,0,0,0,0,0,0,0,0,0,0,0,0,0,0,0,0],"sum_hessian":[1.012E3,7.64E2,2.48E2,2.9E2,4.74E2,2.09E2,3.9E1,1.05E2,1.85E2,2.67E2,2.07E2,1.7E1,1.92E2,1.3E1,2.6E1,4.2E1,6.3E1,7E0,1.78E2,2.41E2,2.6E1,8.1E1,1.26E2,1E1,7E0,1.1E1,1.81E2,1.5E1,2.7E1,4.7E1,1.6E1,3E0,4E0,8.7E1,9.1E1,7.9E1,1.62E2,4E0,2.2E1,5.5E1,2.6E1,6.8E1,5.8E1,2E0,5E0,1.64E2,1.7E1,4.6E1,1E0,2E0,1E0,1E0,3E0,7.1E1,1.6E1,9E1,1E0,3.7E1,4.2E1,1.45E2,1.7E1,1.9E1,3.6E1,8E0,1.8E1,2E1,4.8E1,5.3E1,5E0,2E0,3E0,6E1,1.04E2,4E0,1.3E1],"tree_param":{"num_deleted":"0","num_feature":"28","num_nodes":"75","size_leaf_vector":"1"}},{"base_weights":[-2.4208347E-1,-3.780924E0,1.1313114E1,-7.3650246E0,4.3502593E-1,9.435939E0,2.2460882E1,-1.0656727E1,-6.164498E0,1.5767386E0,-2.0910761E0,4.1193855E-1,1.0157586E1,6.4949054E-1,1.2255589E0,-1.3887439E1,-9.631218E0,-5.308097E0,-7.816863E0,1.27847E0,6.755455E0,-4.844798E0,-9.978703E-1,-1.7362645E0,3.4219515E0,7.6861663E0,1.2276766E1,-7.391607E-1,-3.763426E-1,-2.0141113E-1,-9.716667E0,-5.934521E0,-3.3124602E0,-4.5116964E-1,-3.4464595E-1,-1.6957432E0,1.7652568E0,1.4614618E-1,4.0670165E-1,-9.31853E-1,-5.561447E0,4.221629E-1,-2.5784903E0,-1.22245334E-1,-6.2074184E-2,2.4569432E-1,1.0745287E0,8.00523E0,1.9382458E0,4.7118015E0,1.2801146E1,-4.8834655E-1,-1.3862017E-1,-3.026027E-1,-6.10823E-2,-2.0715772E-1,8.352078E-2,-1.2406627E-1,1.5998913E-1,-1.0484656E-1,9.690013E-2,-5.04207E-2,-1.3726187E-2,-3.070514E-1,-1.5555046E-1,6.5531656E-2,-5.7952262E-2,-1.8177111E-1,-9.052353E-2,-4.1797496E-2,2.3726719E-2,9.767294E-3,6.512372E-2,3.1865874E-1,4.3969527E-1,-1.6339779E-3,1.16948344E-1,2.5205582E-1,6.0165025E-2,7.0036834E-1,5.3592134E-1],"categories":[],"categories_nodes":[],"categories_segments":[],"categories_sizes":[],"default_left":[0,0,0,0,0,0,0,0,0,0,0,0,0,0,0,0,0,0,0,0,0,0,0,0,0,0,0,0,0,0,0,0,0,0,0,0,0,0,0,0,0,0,0,0,0,0,0,0,0,0,0,0,0,0,0,0,0,0,0,0,0,0,0,0,0,0,0,0,0,0,0,0,0,0,0,0,0,0,0,0,0],"id":4,"left_children":[1,3,5,7,9,11,13,15,17,19,21,23,25,-1,-1,27,29,31,33,35,37,39,41,43,45,47,49,-1,-1,-1,51,53,55,-1,-1,57,59,-1,-1,61,63,65,67,-1,69,-1,71,73,75,77,79,-1,-1,-1,-1,-1,-1,-1,-1,-1,-1,-1,-1,-1,-1,-1,-1,-1,-1,-1,-1,-1,-1,-1,-1,-1,-1,-1,-1,-1,-1],"loss_changes":[4.0812098E4,1.154754E4,4.6848184E3,1.5663906E3,1.01849426E3,1.3112695E3,3.2241406E2,2.2737695E2,3.9010938E2,3.6671295E2,3.2630783E2,1.09399315E2,8.8503125E2,0E0,0E0,2.5472656E1,2.0336914E0,2.3536523E2,5.15083E1,3.37437E2,4.4909607E1,8.1747986E1,1.8065118E2,1.1712252E1,1.9235298E1,1.4770605E2,3.3240723E2,0E0,0E0,0E0,2.2421875E0,7.790967E1,2.1802234E2,0E0,0E0,1.3485236E2,1.3683197E2,0E0,0E0,2.5121212E-2,1.7821106E1,6.1927906E1,2.426445E1,0E0,2.0577602E0,0E0,5.4719067E-1,5.207666E1,4.8151836E0,3.1772156E0,8.098633E1,0E0,0E0,0E0,0E0,0E0,0E0,0E0,0E0,0E0,0E0,0E0,0E0,0E0,0E0,0E0,0E0,0E0,0E0,0E0,0E0,0E0,0E0,0E0,0E0,0E0,0E0,0E0,0E0,0E0,0E0],"parents":[2147483647,0,0,1,1,2,2,3,3,4,4,5,5,6,6,7,7,8,8,9,9,10,10,11,11,12,12,15,15,16,16,17,17,18,18,19,19,20,20,21,21,22,22,23,23,24,24,25,25,26,26,30,30,31,31,32,32,35,35,36,36,39,39,40,40,41,41,42,42,44,44,46,46,47,47,48,48,49,49,50,50],"right_children":[2,4,6,8,10,12,14,16,18,20,22,24,26,-1,-1,28,30,32,34,36,38,40,42,44,46,48,50,-1,-1,-1,52,54,56,-1,-1,58,60,-1,-1,62,64,66,68,-1,70,-1,72,74,76,78,80,-1,-1,-1,-1,-1,-1,-1,-1,-1,-1,-1,-1,-1,-1,-1,-1,-1,-1,-1,-1,-1,-1,-1,-1,-1,-1,-1,-1,-1,-1],"split_conditions":[2.43038E1,1.36132E1,3.91824E1,6.5718E0,9E0,2.1567E5,4.4158268E1,2.5668E0,-2.57544E0,4.5985055E0,-3.937703E1,3.64882E1,2.91186E1,6.4949054E-1,1.2255589E0,-2.7658304E1,2.17412E5,1.13334E1,-7.5533724E-1,1.62574E1,4.3148274E0,-2.852E3,1.1E1,-6.093024E0,-5.684112E0,-3.759336E0,-1.5467249E1,-7.391607E-1,-3.763426E-1,-2.0141113E-1,7.6801575E1,1.4726897E1,5.447184E1,-4.5116964E-1,-3.4464595E-1,3.2451027E1,2.20923E5,1.4614618E-1,4.0670165E-1,-5.568696E0,-3.737328E0,-4.085424E0,-7.1072903E0,-1.22245334E-1,-5.6136864E1,2.4569432E-1,-3.2175865E1,6.735118E1,-3.551016E0,1.68084E1,4.58128E5,-4.8834655E-1,-1.3862017E-1,-3.026027E-1,-6.10823E-2,-2.0715772E-1,8.352078E-2,-1.2406627E-1,1.5998913E-1,-1.0484656E-1,9.690013E-2,-5.04207E-2,-1.3726187E-2,-3.070514E-1,-1.5555046E-1,6.5531656E-2,-5.7952262E-2,-1.8177111E-1,-9.052353E-2,-4.1797496E-2,2.3726719E-2,9.767294E-3,6.512372E-2,3.1865874E-1,4.3969527E-1,-1.6339779E-3,1.16948344E-1,2.5205582E-1,6.0165025E-2,7.0036834E-1,5.3592134E-1],"split_indices":[12,12,12,12,3,7,20,12,1,16,19,14,12,0,0,20,7,12,19,12,18,11,3,1,1,1,20,0,0,0,20,18,19,0,0,20,7,0,0,1,1,1,19,0,2,0,2,20,1,0,5,0,0,0,0,0,0,0,0,0,0,0,0,0,0,0,0,0,0,0,0,0,0,0,0,0,0,0,0,0,0],"split_type":[0,0,0,0,0,0,0,0,0,0,0,0,0,0,0,0,0,0,0,0,0,0,0,0,0,0,0,0,0,0,0,0,0,0,0,0,0,0,0,0,0,0,0,0,0,0,0,0,0,0,0,0,0,0,0,0,0,0,0,0,0,0,0,0,0,0,0,0,0,0,0,0,0,0,0,0,0,0,0,0,0],"sum_hessian":[9.96E2,7.63E2,2.33E2,4.12E2,3.51E2,2.01E2,3.2E1,1.08E2,3.04E2,2.42E2,1.09E2,1.5E1,1.86E2,7E0,2.5E1,2.3E1,8.5E1,2.03E2,1.01E2,2.3E2,1.2E1,3E1,7.9E1,9E0,6E0,8.8E1,9.8E1,1.9E1,4E0,2E0,8.3E1,1.53E2,5E1,4E1,6.1E1,3.2E1,1.98E2,4E0,8E0,5E0,2.5E1,4.2E1,3.7E1,6E0,3E0,3E0,3E0,8.3E1,5E0,7E0,9.1E1,8.2E1,1E0,1.49E2,4E0,4.3E1,7E0,2.8E1,4E0,8E0,1.9E2,4E0,1E0,1.9E1,6E0,2.7E1,1.5E1,1.4E1,2.3E1,1E0,2E0,1E0,2E0,3E1,5.3E1,1E0,4E0,6E0,1E0,5.4E1,3.7E1],"tree_param":{"num_deleted":"0","num_feature":"28","num_nodes":"81","size_leaf_vector":"1"}},{"base_weights":[-5.3544343E-2,-3.577633E0,1.1002078E1,-6.979784E0,5.382144E-1,8.836242E0,2.2382172E1,-1.0346848E1,-5.7458415E0,-4.8584585E0,1.1854782E0,-1.22735776E-1,9.428066E0,6.2107533E-1,1.2086447E0,-1.5321368E1,-9.546947E0,-4.70633E0,-7.0717735E0,-1.6647962E0,-5.7921886E0,1.5958586E0,-2.3822038E0,-1.0982706E-1,1.2734383E0,6.285296E0,1.0893119E1,-1.687636E-1,-7.9903316E-1,-4.086724E-1,-5.3053695E-1,-1.3208252E0,-5.1001034E0,-4.1565347E-1,-6.204387E0,-1.3052228E-1,-5.9928924E-1,-3.107107E-1,-1.7890391E-1,1.4189792E0,4.1962597E-1,-1.6743104E-1,-1.7467854E0,3.904498E-1,1.4546327E-1,3.8792336E0,7.194773E0,4.6126337E0,1.1311762E1,-1.5773866E-1,-3.3258248E-2,-2.8009707E-1,-1.4155519E-1,-1.9652052E-1,-3.264397E-1,2.1750975E-2,-4.465775E-2,1.8849735E-1,4.8040297E-2,-9.798127E-2,-4.26304E-2,-4.0752556E-2,3.6360424E-2,2.7894816E-1,1.1405837E-1,3.7201545E-1,5.976658E-2,2.4322169E-1,5.866089E-2,3.323799E-1,5.922475E-1],"categories":[],"categories_nodes":[],"categories_segments":[],"categories_sizes":[],"default_left":[0,0,0,0,0,0,0,0,0,0,0,0,0,0,0,0,0,0,0,0,0,0,0,0,0,0,0,0,0,0,0,0,0,0,0,0,0,0,0,0,0,0,0,0,0,0,0,0,0,0,0,0,0,0,0,0,0,0,0,0,0,0,0,0,0,0,0,0,0,0,0],"id":5,"left_children":[1,3,5,7,9,11,13,15,17,19,21,23,25,-1,-1,27,29,31,33,35,37,39,41,-1,43,45,47,-1,-1,-1,-1,49,51,-1,53,-1,55,-1,-1,57,-1,-1,59,61,-1,63,65,67,69,-1,-1,-1,-1,-1,-1,-1,-1,-1,-1,-1,-1,-1,-1,-1,-1,-1,-1,-1,-1,-1,-1],"loss_changes":[3.997438E4,1.0897886E4,5.914789E3,1.7104785E3,1.2388137E3,1.1146074E3,3.953711E2,3.0336816E2,3.9951074E2,1.0367395E2,4.664594E2,4.3332664E1,8.3858594E2,0E0,0E0,5.632495E1,5.9385742E1,2.3189233E2,9.485156E1,8.511543E0,4.862915E0,3.2951306E2,1.4415283E1,0E0,1.1863829E1,1.1432666E2,2.9751562E2,0E0,0E0,0E0,0E0,2.1950489E1,1.6632764E2,0E0,3.6305176E1,0E0,2.2122264E0,0E0,0E0,2.9582562E2,0E0,0E0,2.5161743E0,3.434452E0,0E0,4.159906E1,5.8867676E1,2.9533997E0,2.2963281E2,0E0,0E0,0E0,0E0,0E0,0E0,0E0,0E0,0E0,0E0,0E0,0E0,0E0,0E0,0E0,0E0,0E0,0E0,0E0,0E0,0E0,0E0],"parents":[2147483647,0,0,1,1,2,2,3,3,4,4,5,5,6,6,7,7,8,8,9,9,10,10,11,11,12,12,15,15,16,16,17,17,18,18,19,19,20,20,21,21,22,22,24,24,25,25,26,26,31,31,32,32,34,34,36,36,39,39,42,42,43,43,45,45,46,46,47,47,48,48],"right_children":[2,4,6,8,10,12,14,16,18,20,22,24,26,-1,-1,28,30,32,34,36,38,40,42,-1,44,46,48,-1,-1,-1,-1,50,52,-1,54,-1,56,-1,-1,58,-1,-1,60,62,-1,64,66,68,70,-1,-1,-1,-1,-1,-1,-1,-1,-1,-1,-1,-1,-1,-1,-1,-1,-1,-1,-1,-1,-1,-1],"split_conditions":[2.40624E1,1.3953E1,3.91824E1,6.5718E0,-3.6855938E1,2.1567E5,4.4158268E1,-9.454902E1,-2.91312E0,-2.541E3,1.1E1,-6.093024E0,2.78056E1,6.2107533E-1,1.2086447E0,-1.575E0,1.63E2,8.25E1,5.971488E0,6.09E-1,-4.5869534E1,2.6081274E1,-7.1072903E0,-1.0982706E-1,3.872105E1,-2.492E3,-3.0196383E1,-1.687636E-1,-7.9903316E-1,-4.086724E-1,-5.3053695E-1,8.361187E0,2.4702953E1,-4.1565347E-1,-4.32E3,-1.3052228E-1,2.48346E1,-3.107107E-1,-1.7890391E-1,1.17716E5,4.1962597E-1,-1.6743104E-1,2.0636284E0,2.91186E1,1.4546327E-1,-4.454184E0,2.1672E1,1.58046E1,2.0437014E1,-1.5773866E-1,-3.3258248E-2,-2.8009707E-1,-1.4155519E-1,-1.9652052E-1,-3.264397E-1,2.1750975E-2,-4.465775E-2,1.8849735E-1,4.8040297E-2,-9.798127E-2,-4.26304E-2,-4.0752556E-2,3.6360424E-2,2.7894816E-1,1.1405837E-1,3.7201545E-1,5.976658E-2,2.4322169E-1,5.866089E-2,3.323799E-1,5.922475E-1],"split_indices":[12,12,12,12,19,7,20,20,1,11,3,1,12,0,0,0,10,8,19,0,19,24,19,0,15,9,20,0,0,0,0,15,24,0,10,0,0,0,0,6,0,0,20,12,0,1,0,0,15,0,0,0,0,0,0,0,0,0,0,0,0,0,0,0,0,0,0,0,0,0,0],"split_type":[0,0,0,0,0,0,0,0,0,0,0,0,0,0,0,0,0,0,0,0,0,0,0,0,0,0,0,0,0,0,0,0,0,0,0,0,0,0,0,0,0,0,0,0,0,0,0,0,0,0,0,0,0,0,0,0,0,0,0,0,0,0,0,0,0,0,0,0,0,0,0],"sum_hessian":[1.024E3,7.77E2,2.47E2,4.25E2,3.52E2,2.09E2,3.8E1,1.12E2,3.13E2,3.7E1,3.15E2,1.3E1,1.96E2,7E0,3.1E1,1.3E1,9.9E1,1.78E2,1.35E2,9E0,2.8E1,2.83E2,3.2E1,5E0,8E0,6.4E1,1.32E2,1E0,1.2E1,4.7E1,5.2E1,1.9E1,1.59E2,5.2E1,8.3E1,4E0,5E0,2.2E1,6E0,2.77E2,6E0,1.1E1,2.1E1,6E0,2E0,1.9E1,4.5E1,9E0,1.23E2,4E0,1.5E1,1.29E2,3E1,1.2E1,7.1E1,1E0,4E0,4.4E1,2.33E2,1.6E1,5E0,1E0,5E0,8E0,1.1E1,4.3E1,2E0,8E0,1E0,1.4E1,1.09E2],"tree_param":{"num_deleted":"0","num_feature":"28","num_nodes":"71","size_leaf_vector":"1"}},{"base_weights":[-1.842668E-2,-3.3988144E0,1.0356416E1,-6.8753757E0,1.6119939E-1,8.460008E0,2.1547335E1,-9.67126E0,-5.822335E0,-5.656606E0,8.9449257E-1,1.7181599E-1,9.090216E0,6.2277776E-1,1.1323723E0,-1.4694227E1,-8.910968E0,-5.097803E0,-7.075514E0,-4.1988173E-1,-4.280274E0,-1.0748605E0,1.8316414E0,-8.769103E-1,2.5043002E-1,6.5323915E0,1.10131035E1,-1.6454451E-1,-7.715861E-1,-3.8291085E-1,-4.998618E-1,-5.384774E0,-1.5630031E0,-3.9082453E-1,-6.1099453E0,-4.8506565E0,-1.1903011E0,-1.733427E0,3.1238136E0,1.084827E0,3.625664E0,-1.8629057E0,3.7521443E-1,3.7797158E0,7.5210342E0,4.5794163E0,1.1468347E1,-3.9720604E-1,-2.5585702E-1,-1.4821005E-1,2.309116E-2,-1.6785018E-1,-3.1419584E-1,-1.525949E-1,-2.758804E-1,-7.232334E-2,-2.2598999E-2,-2.147157E-1,-6.1579645E-2,2.4177134E-1,5.1086187E-2,-2.5591655E-2,7.911327E-2,6.297002E-2,2.8427574E-1,2.0466615E-2,-1.1229936E-1,-3.9733745E-2,3.513209E-2,1.07874624E-1,2.678667E-1,4.2452207E-1,2.588957E-1,9.15261E-2,2.5516558E-1,5.3543186E-1,7.9520667E-1],"categories":[],"categories_nodes":[],"categories_segments":[],"categories_sizes":[],"default_left":[0,0,0,0,0,0,0,0,0,0,0,0,0,0,0,0,0,0,0,0,0,0,0,0,0,0,0,0,0,0,0,0,0,0,0,0,0,0,0,0,0,0,0,0,0,0,0,0,0,0,0,0,0,0,0,0,0,0,0,0,0,0,0,0,0,0,0,0,0,0,0,0,0,0,0,0,0],"id":6,"left_children":[1,3,5,7,9,11,13,15,17,19,21,23,25,-1,-1,27,29,31,33,-1,35,37,39,41,-1,43,45,-1,-1,-1,-1,47,49,-1,51,53,55,57,59,61,63,65,67,69,71,73,75,-1,-1,-1,-1,-1,-1,-1,-1,-1,-1,-1,-1,-1,-1,-1,-1,-1,-1,-1,-1,-1,-1,-1,-1,-1,-1,-1,-1,-1,-1],"loss_changes":[3.510619E4,9.345447E3,5.038457E3,1.0683652E3,1.6006027E3,1.1057764E3,6.798242E1,2.6241016E2,2.1816113E2,1.2250354E2,6.165459E2,8.5551506E1,8.969834E2,0E0,0E0,5.0134766E1,4.8634766E1,1.751875E2,2.3788086E1,0E0,4.710028E1,3.0404636E2,2.98862E2,1.7983238E1,0E0,2.083357E2,2.7258887E2,0E0,0E0,0E0,0E0,7.373877E1,4.3926678E1,0E0,1.8937988E0,1.3152954E1,4.8102093E-1,1.1551434E2,4.9028976E1,1.2868246E2,3.1453357E2,7.8829746E0,3.239748E0,5.242282E1,9.9137695E1,3.6194763E0,1.7678906E2,0E0,0E0,0E0,0E0,0E0,0E0,0E0,0E0,0E0,0E0,0E0,0E0,0E0,0E0,0E0,0E0,0E0,0E0,0E0,0E0,0E0,0E0,0E0,0E0,0E0,0E0,0E0,0E0,0E0,0E0],"parents":[2147483647,0,0,1,1,2,2,3,3,4,4,5,5,6,6,7,7,8,8,9,9,10,10,11,11,12,12,15,15,16,16,17,17,18,18,20,20,21,21,22,22,23,23,25,25,26,26,31,31,32,32,34,34,35,35,36,36,37,37,38,38,39,39,40,40,41,41,42,42,43,43,44,44,45,45,46,46],"right_children":[2,4,6,8,10,12,14,16,18,20,22,24,26,-1,-1,28,30,32,34,-1,36,38,40,42,-1,44,46,-1,-1,-1,-1,48,50,-1,52,54,56,58,60,62,64,66,68,70,72,74,76,-1,-1,-1,-1,-1,-1,-1,-1,-1,-1,-1,-1,-1,-1,-1,-1,-1,-1,-1,-1,-1,-1,-1,-1,-1,-1,-1,-1,-1,-1],"split_conditions":[2.40624E1,1.28112E1,3.91824E1,6.5718E0,-3.6855938E1,2.1567E5,4.4158268E1,-9.454902E1,-2.57544E0,-7.132207E1,1.69542E1,3.872105E1,2.86324E1,6.2277776E-1,1.1323723E0,-1.575E0,1.63E2,1.3226526E2,5.971488E0,-4.1988173E-1,1.89038E1,5.809418E1,2.02095E1,-6.093024E0,2.5043002E-1,-5.25E0,-1.5467249E1,-1.6454451E-1,-7.715861E-1,-3.8291085E-1,-4.998618E-1,-7.636578E1,8.361187E0,-3.9082453E-1,-4.46E3,1.6617352E1,-5.643624E0,1.269224E1,1.80306E1,2.20923E5,1.6282656E1,9.07E1,2.91186E1,2.1425413E1,-1.134E3,3.18724E1,1.49814E1,-3.9720604E-1,-2.5585702E-1,-1.4821005E-1,2.309116E-2,-1.6785018E-1,-3.1419584E-1,-1.525949E-1,-2.758804E-1,-7.232334E-2,-2.2598999E-2,-2.147157E-1,-6.1579645E-2,2.4177134E-1,5.1086187E-2,-2.5591655E-2,7.911327E-2,6.297002E-2,2.8427574E-1,2.0466615E-2,-1.1229936E-1,-3.9733745E-2,3.513209E-2,1.07874624E-1,2.678667E-1,4.2452207E-1,2.588957E-1,9.15261E-2,2.5516558E-1,5.3543186E-1,7.9520667E-1],"split_indices":[12,12,12,12,19,7,20,20,1,19,12,15,12,0,0,0,10,20,19,0,12,19,19,1,0,0,20,0,0,0,0,20,15,0,10,24,1,15,0,7,15,8,12,24,10,12,0,0,0,0,0,0,0,0,0,0,0,0,0,0,0,0,0,0,0,0,0,0,0,0,0,0,0,0,0,0,0],"split_type":[0,0,0,0,0,0,0,0,0,0,0,0,0,0,0,0,0,0,0,0,0,0,0,0,0,0,0,0,0,0,0,0,0,0,0,0,0,0,0,0,0,0,0,0,0,0,0,0,0,0,0,0,0,0,0,0,0,0,0,0,0,0,0,0,0,0,0,0,0,0,0,0,0,0,0,0,0],"sum_hessian":[9.99E2,7.54E2,2.45E2,3.81E2,3.73E2,2.11E2,3.4E1,1.02E2,2.79E2,4.1E1,3.32E2,1.5E1,1.96E2,5E0,2.9E1,1.1E1,9.1E1,1.8E2,9.9E1,1.2E1,2.9E1,1.07E2,2.25E2,1.3E1,2E0,8.6E1,1.1E2,1E0,1E1,4.6E1,4.5E1,1.66E2,1.4E1,5.2E1,4.7E1,2.4E1,5E0,9.3E1,1.4E1,1.6E2,6.5E1,7E0,6E0,2.4E1,6.2E1,8E0,1.02E2,1.3E1,1.53E2,8E0,6E0,4E0,4.3E1,8E0,1.6E1,3E0,2E0,1.4E1,7.9E1,7E0,7E0,3.8E1,1.22E2,3.1E1,3.4E1,1E0,6E0,1E0,5E0,1.3E1,1.1E1,4.2E1,2E1,2E0,6E0,9E1,1.2E1],"tree_param":{"num_deleted":"0","num_feature":"28","num_nodes":"77","size_leaf_vector":"1"}},{"base_weights":[-8.593111E-3,-2.9377186E0,9.323491E0,-6.2803326E0,8.280921E-2,8.941222E-1,1.0938522E1,-7.4867663E0,-4.949808E0,-6.172495E0,1.0191039E0,3.4405699E0,-4.08075E0,8.994686E0,2.1044813E1,-8.68029E0,-5.942502E0,-5.386867E0,-7.8985244E-1,-5.942146E-1,-4.7340755E0,-1.4299583E-1,2.839079E0,5.3882666E0,1.5231948E0,-1.2118126E0,-2.5535718E-1,6.2157187E0,1.0751937E1,6.6710585E-1,1.1333942E0,-5.6028587E-1,-7.7072926E0,-6.07675E0,-2.02727E-1,-5.5707426E0,2.610712E-1,4.0736485E-2,-1.6249677E0,-5.247404E0,-2.1547523E0,-2.6518512E0,7.251455E-1,1.8975244E0,6.639635E0,4.6402216E-2,2.8413072E-1,-3.1967007E-2,1.9050725E0,-1.1701631E-2,-6.9887474E-2,3.5888963E0,7.4511104E0,7.9845285E0,1.28091135E1,-3.8901225E-1,-5.04251E-2,-3.208962E-1,-2.11282E-1,-1.7293025E-2,2.088499E-3,-3.2649764E-1,-2.3729794E-1,-1.2653017E-2,2.072548E-2,-1.7735941E-2,5.4085255E-2,-1.0005261E-1,-3.272996E-2,-3.8740396E-2,-2.6765275E-1,-1.15974806E-1,-2.0920038E-2,-2.650735E-1,-9.431781E-2,-4.5134675E-2,8.331805E-2,1.4227054E-2,2.0211203E-1,3.9914626E-1,2.1476395E-1,5.0159317E-2,1.2674026E-1,1.8639944E-1,9.744072E-3,2.7148077E-1,4.3986374E-1,2.757629E-1,4.731566E-1,5.600452E-1,7.310353E-1],"categories":[],"categories_nodes":[],"categories_segments":[],"categories_sizes":[],"default_left":[0,0,0,0,0,0,0,0,0,0,0,0,0,0,0,0,0,0,0,0,0,0,0,0,0,0,0,0,0,0,0,0,0,0,0,0,0,0,0,0,0,0,0,0,0,0,0,0,0,0,0,0,0,0,0,0,0,0,0,0,0,0,0,0,0,0,0,0,0,0,0,0,0,0,0,0,0,0,0,0,0,0,0,0,0,0,0,0,0,0,0],"id":7,"left_children":[1,3,5,7,9,11,13,15,17,19,21,23,25,27,29,31,33,35,37,-1,39,41,43,45,47,49,-1,51,53,-1,-1,-1,55,57,59,61,63,65,67,69,71,73,75,77,79,-1,-1,-1,81,-1,-1,83,85,87,89,-1,-1,-1,-1,-1,-1,-1,-1,-1,-1,-1,-1,-1,-1,-1,-1,-1,-1,-1,-1,-1,-1,-1,-1,-1,-1,-1,-1,-1,-1,-1,-1,-1,-1,-1,-1],"loss_changes":[2.7690256E4,7.784889E3,3.2847324E3,5.504414E2,2.3841545E3,5.207702E2,3.7986406E3,2.9861035E2,3.1755664E2,3.791848E2,7.4911316E2,9.262314E1,3.50363E1,7.731035E2,9.762695E1,1.7164453E2,6.5035645E1,1.6761768E2,1.2551669E1,0E0,4.6950867E1,4.745579E2,4.8122473E2,1.17934265E1,1.3605347E1,5.8190775E-1,0E0,1.9717432E2,4.898037E2,0E0,0E0,0E0,3.0759766E1,2.593042E1,1.194337E-1,9.163623E1,5.7822096E-1,4.5002666E0,1.974577E0,1.2863647E1,1.6040001E0,1.0358264E2,2.4971207E2,3.8630173E2,5.073816E1,0E0,0E0,0E0,4.840435E0,0E0,0E0,1.0603485E1,7.74126E1,1.1940869E2,5.2128906E0,0E0,0E0,0E0,0E0,0E0,0E0,0E0,0E0,0E0,0E0,0E0,0E0,0E0,0E0,0E0,0E0,0E0,0E0,0E0,0E0,0E0,0E0,0E0,0E0,0E0,0E0,0E0,0E0,0E0,0E0,0E0,0E0,0E0,0E0,0E0,0E0],"parents":[2147483647,0,0,1,1,2,2,3,3,4,4,5,5,6,6,7,7,8,8,9,9,10,10,11,11,12,12,13,13,14,14,15,15,16,16,17,17,18,18,20,20,21,21,22,22,23,23,24,24,25,25,27,27,28,28,32,32,33,33,34,34,35,35,36,36,37,37,38,38,39,39,40,40,41,41,42,42,43,43,44,44,48,48,51,51,52,52,53,53,54,54],"right_children":[2,4,6,8,10,12,14,16,18,20,22,24,26,28,30,32,34,36,38,-1,40,42,44,46,48,50,-1,52,54,-1,-1,-1,56,58,60,62,64,66,68,70,72,74,76,78,80,-1,-1,-1,82,-1,-1,84,86,88,90,-1,-1,-1,-1,-1,-1,-1,-1,-1,-1,-1,-1,-1,-1,-1,-1,-1,-1,-1,-1,-1,-1,-1,-1,-1,-1,-1,-1,-1,-1,-1,-1,-1,-1,-1,-1],"split_conditions":[2.40624E1,1.16592E1,-1.855439E1,8.572E0,-3.1401064E1,2.54268E1,7.651953E0,4.5839033E0,3.10548E1,-7.8172935E1,1.8540392E1,2.35E2,2.89086E1,2.1587776E1,-1.615451E0,1.09E2,9.382E3,1.641024E0,1.02062E1,-5.942146E-1,1.26846E5,1.61704E1,1.7542E1,-1.0794E0,3.1543451E1,6.0525346E0,-2.5535718E-1,6.8602425E1,2.539913E-1,6.6710585E-1,1.1333942E0,-5.6028587E-1,4.11684E1,5.329452E0,4.956E-1,3.1578243E0,1.87404E0,3.1739174E1,2.567655E1,-5.6136864E1,1.869E0,1.21418E1,-1.200025E1,7.784378E1,8.1E1,4.6402216E-2,2.8413072E-1,-3.1967007E-2,-8.12E2,-1.1701631E-2,-6.9887474E-2,2.38879E5,-8.274E-1,2.5677301E1,2.7667414E1,-3.8901225E-1,-5.04251E-2,-3.208962E-1,-2.11282E-1,-1.7293025E-2,2.088499E-3,-3.2649764E-1,-2.3729794E-1,-1.2653017E-2,2.072548E-2,-1.7735941E-2,5.4085255E-2,-1.0005261E-1,-3.272996E-2,-3.8740396E-2,-2.6765275E-1,-1.15974806E-1,-2.0920038E-2,-2.650735E-1,-9.431781E-2,-4.5134675E-2,8.331805E-2,1.4227054E-2,2.0211203E-1,3.9914626E-1,2.1476395E-1,5.0159317E-2,1.2674026E-1,1.8639944E-1,9.744072E-3,2.7148077E-1,4.3986374E-1,2.757629E-1,4.731566E-1,5.600452E-1,7.310353E-1],"split_indices":[13,13,20,13,19,0,16,19,0,19,19,23,0,17,19,23,9,2,13,0,6,14,14,0,17,16,0,20,19,0,0,0,0,18,0,19,2,17,24,2,0,14,19,19,23,0,0,0,10,0,0,7,0,17,20,0,0,0,0,0,0,0,0,0,0,0,0,0,0,0,0,0,0,0,0,0,0,0,0,0,0,0,0,0,0,0,0,0,0,0,0],"split_type":[0,0,0,0,0,0,0,0,0,0,0,0,0,0,0,0,0,0,0,0,0,0,0,0,0,0,0,0,0,0,0,0,0,0,0,0,0,0,0,0,0,0,0,0,0,0,0,0,0,0,0,0,0,0,0,0,0,0,0,0,0,0,0,0,0,0,0,0,0,0,0,0,0,0,0,0,0,0,0,0,0,0,0,0,0,0,0,0,0,0,0],"sum_hessian":[1.011E3,7.7E2,2.41E2,3.65E2,4.05E2,3.9E1,2.02E2,1.89E2,1.76E2,5.2E1,3.53E2,2.6E1,1.3E1,1.71E2,3.1E1,1.04E2,8.5E1,1.59E2,1.7E1,9E0,4.3E1,2.16E2,1.37E2,1.2E1,1.4E1,4E0,9E0,6.8E1,1.03E2,7E0,2.4E1,2.6E1,7.8E1,8.3E1,2E0,1.54E2,5E0,9E0,8E0,3.5E1,8E0,5.5E1,1.61E2,1.11E2,2.6E1,1E0,1.1E1,2E0,1.2E1,1E0,3E0,2.3E1,4.5E1,4.6E1,5.7E1,7.7E1,1E0,6.8E1,1.5E1,1E0,1E0,6.8E1,8.6E1,1E0,4E0,7E0,2E0,5E0,3E0,1E0,3.4E1,7E0,1E0,1.1E1,4.4E1,5.9E1,1.02E2,6.4E1,4.7E1,1.5E1,1.1E1,6E0,6E0,2.2E1,1E0,2E1,2.5E1,1.9E1,2.7E1,3.4E1,2.3E1],"tree_param":{"num_deleted":"0","num_feature":"28","num_nodes":"91","size_leaf_vector":"1"}},{"base_weights":[-1.0953542E-1,-3.105723E0,9.325193E0,-6.230231E0,1.8735794E-2,7.8626747E0,1.804111E1,-8.795994E0,-5.222255E0,-5.2065506E0,6.2804407E-1,5.9754305E0,1.0021874E1,9.794356E-1,5.2814066E-1,-1.1812985E1,-7.8651986E0,-4.546486E0,-6.313145E0,-6.412761E0,-2.7686827E0,-1.2522267E0,1.5944036E0,6.8556085E0,1.5586704E-1,7.27527E0,1.1695938E1,-6.444327E-1,-2.6814264E-1,-3.4710145E-1,-4.376197E-1,-2.8134441E0,-4.9472713E0,-3.3143738E-1,-2.4249235E-1,-4.6465358E-1,-5.466656E0,-3.5992607E-2,-1.8605565E-1,-1.7537687E0,2.0233676E0,9.3881184E-1,2.7644973E0,5.5392375E0,8.312159E0,-1.7351406E0,1.4639857E0,2.045841E0,7.984132E0,6.7184144E-1,4.930782E-1,-2.0548561E-1,-4.0555295E-2,-2.8444946E-1,-2.1512702E-1,-2.896994E-1,-7.311136E-2,-2.6923832E-1,-6.7224056E-2,2.4266072E-2,1.9657621E-1,-5.46205E-2,6.921505E-2,4.6988826E-2,2.2608958E-1,3.2509097E-1,1.7648143E-1,2.515789E-1,4.4427428E-1,-4.2796773E-3,-1.1889203E-1,-1.2461948E-2,8.4101856E-2,1.17517404E-1,1.3082648E-2,4.5852825E-1,2.6810798E-1],"categories":[],"categories_nodes":[],"categories_segments":[],"categories_sizes":[],"default_left":[0,0,0,0,0,0,0,0,0,0,0,0,0,0,0,0,0,0,0,0,0,0,0,0,0,0,0,0,0,0,0,0,0,0,0,0,0,0,0,0,0,0,0,0,0,0,0,0,0,0,0,0,0,0,0,0,0,0,0,0,0,0,0,0,0,0,0,0,0,0,0,0,0,0,0,0,0],"id":8,"left_children":[1,3,5,7,9,11,13,15,17,19,21,23,25,-1,-1,27,29,31,33,35,37,39,41,43,45,47,49,-1,-1,-1,-1,51,53,-1,-1,-1,55,-1,-1,57,59,61,63,65,67,69,71,73,75,-1,-1,-1,-1,-1,-1,-1,-1,-1,-1,-1,-1,-1,-1,-1,-1,-1,-1,-1,-1,-1,-1,-1,-1,-1,-1,-1,-1],"loss_changes":[2.8381982E4,7.4390615E3,2.9429668E3,9.39417E2,1.2194856E3,7.9177637E2,1.8658398E2,2.0475781E2,1.7476172E2,9.9868286E1,6.252336E2,5.828677E2,3.563164E2,0E0,0E0,9.0458496E1,8.0390625E0,1.06937744E2,1.5418945E1,2.0050049E1,2.6591858E1,1.9576176E2,1.7153723E2,1.4377588E2,4.2118813E1,1.2823657E2,5.2711426E1,0E0,0E0,0E0,0E0,8.751141E1,4.2472168E1,0E0,0E0,0E0,2.036493E1,0E0,0E0,1.4434473E2,4.504927E1,1.3453064E2,2.5548279E2,8.3443726E1,3.9929688E1,7.217621E0,4.1549416E0,2.6448097E0,5.6592773E1,0E0,0E0,0E0,0E0,0E0,0E0,0E0,0E0,0E0,0E0,0E0,0E0,0E0,0E0,0E0,0E0,0E0,0E0,0E0,0E0,0E0,0E0,0E0,0E0,0E0,0E0,0E0,0E0],"parents":[2147483647,0,0,1,1,2,2,3,3,4,4,5,5,6,6,7,7,8,8,9,9,10,10,11,11,12,12,15,15,16,16,17,17,18,18,19,19,20,20,21,21,22,22,23,23,24,24,25,25,26,26,31,31,32,32,36,36,39,39,40,40,41,41,42,42,43,43,44,44,45,45,46,46,47,47,48,48],"right_children":[2,4,6,8,10,12,14,16,18,20,22,24,26,-1,-1,28,30,32,34,36,38,40,42,44,46,48,50,-1,-1,-1,-1,52,54,-1,-1,-1,56,-1,-1,58,60,62,64,66,68,70,72,74,76,-1,-1,-1,-1,-1,-1,-1,-1,-1,-1,-1,-1,-1,-1,-1,-1,-1,-1,-1,-1,-1,-1,-1,-1,-1,-1,-1,-1],"split_conditions":[2.40624E1,1.25912E1,3.91824E1,6.5718E0,-4.1384865E1,3.02738E1,1.83E2,-7.8172935E1,-2.57544E0,-5.6107082E1,1.69542E1,2.31E2,2.539913E-1,9.794356E-1,5.2814066E-1,-9.64236E0,8.78E2,-2.408E3,5.258397E0,2.45E2,-8.12E2,5.447184E1,1.7867151E1,2.74848E1,-6.201216E0,-2.6777016E1,2.39333E1,-6.444327E-1,-2.6814264E-1,-3.4710145E-1,-4.376197E-1,1.1139E1,-6.5259767E0,-3.3143738E-1,-2.4249235E-1,-4.6465358E-1,1.88276E1,-3.5992607E-2,-1.8605565E-1,1.1264334E1,1E0,2.20083E5,1.6282656E1,-6.03E2,-1.3212203E1,-5.5297367E1,8.2E1,1.80306E1,2.5826155E1,6.7184144E-1,4.930782E-1,-2.0548561E-1,-4.0555295E-2,-2.8444946E-1,-2.1512702E-1,-2.896994E-1,-7.311136E-2,-2.6923832E-1,-6.7224056E-2,2.4266072E-2,1.9657621E-1,-5.46205E-2,6.921505E-2,4.6988826E-2,2.2608958E-1,3.2509097E-1,1.7648143E-1,2.515789E-1,4.4427428E-1,-4.2796773E-3,-1.1889203E-1,-1.2461948E-2,8.4101856E-2,1.17517404E-1,1.3082648E-2,4.5852825E-1,2.6810798E-1],"split_indices":[12,12,12,12,19,12,23,19,1,19,12,23,19,0,0,2,10,10,18,23,10,19,19,12,1,2,24,0,0,0,0,12,19,0,0,0,12,0,0,15,25,7,15,10,19,2,8,0,24,0,0,0,0,0,0,0,0,0,0,0,0,0,0,0,0,0,0,0,0,0,0,0,0,0,0,0,0],"split_type":[0,0,0,0,0,0,0,0,0,0,0,0,0,0,0,0,0,0,0,0,0,0,0,0,0,0,0,0,0,0,0,0,0,0,0,0,0,0,0,0,0,0,0,0,0,0,0,0,0,0,0,0,0,0,0,0,0,0,0,0,0,0,0,0,0,0,0,0,0,0,0,0,0,0,0,0,0],"sum_hessian":[1.002E3,7.61E2,2.41E2,3.8E2,3.81E2,2.08E2,3.3E1,1.05E2,2.75E2,3.9E1,3.42E2,1.13E2,9.5E1,2.6E1,7E0,2.2E1,8.3E1,1.73E2,1.02E2,2.5E1,1.4E1,1.16E2,2.26E2,9.8E1,1.5E1,3.8E1,5.7E1,1.8E1,4E0,4.5E1,3.8E1,3.4E1,1.39E2,8.1E1,2.1E1,4E0,2.1E1,5E0,9E0,1.01E2,1.5E1,1.46E2,8E1,5.4E1,4.4E1,6E0,9E0,5E0,3.3E1,2.6E1,3.1E1,2E1,1.4E1,6.1E1,7.8E1,1.9E1,2E0,9E0,9.2E1,9E0,6E0,2.6E1,1.2E2,4E1,4E1,3.5E1,1.9E1,8E0,3.6E1,2E0,4E0,1E0,8E0,4E0,1E0,2.1E1,1.2E1],"tree_param":{"num_deleted":"0","num_feature":"28","num_nodes":"77","size_leaf_vector":"1"}},{"base_weights":[-8.505994E-2,-2.9100003E0,9.066179E0,-6.0022407E0,2.4754746E-1,7.3858643E0,9.721179E-1,-8.501568E0,-5.0276685E0,1.2088057E0,-1.6923295E0,5.267273E0,9.3519535E0,-1.1053116E1,-7.6199794E0,-5.1395802E0,-1.111693E0,-4.5703816E-1,1.3702092E0,3.5262173E-1,-2.5895796E0,5.870272E0,-1.4520203E-1,2.508546E0,9.745339E0,-6.735499E-1,-3.375588E-1,-3.274907E-1,-4.2191368E-1,-5.337479E0,-2.5388985E0,-2.3155828E0,-1.23817764E-1,-2.3363082E-1,2.0628622E0,4.1282105E0,-3.240299E-1,-4.498849E0,-1.9899479E0,7.2529035E0,4.509368E0,9.152066E-1,-8.003669E-2,2.0244098E-1,2.0937574E-1,9.181848E0,6.892941E-1,-2.3745747E-1,-2.943908E-1,8.429318E-3,-1.5929352E-1,-1.5372223E-1,-9.7494124E-4,-1.5909577E-2,8.8309925E-3,1.5839903E-1,-3.9851308E-2,7.088879E-2,3.3476326E-1,-2.3787547E-2,2.5720766E-1,2.3717485E-2,-1.143788E-1,-2.5146246E-1,-1.21152E-1,-1.24645315E-1,-9.9763E-3,2.4269643E-1,4.0124804E-1,1.4355929E-1,2.5834954E-1,-1.2150384E-2,5.743718E-2,-3.7558485E-2,3.8535055E-2,2.0659438E-1,4.7166258E-1],"categories":[],"categories_nodes":[],"categories_segments":[],"categories_sizes":[],"default_left":[0,0,0,0,0,0,0,0,0,0,0,0,0,0,0,0,0,0,0,0,0,0,0,0,0,0,0,0,0,0,0,0,0,0,0,0,0,0,0,0,0,0,0,0,0,0,0,0,0,0,0,0,0,0,0,0,0,0,0,0,0,0,0,0,0,0,0,0,0,0,0,0,0,0,0,0,0],"id":9,"left_children":[1,3,5,7,9,11,-1,13,15,17,19,21,23,25,27,29,31,-1,33,35,37,39,41,43,45,-1,-1,-1,-1,47,49,51,53,55,57,59,61,63,65,67,69,71,-1,73,-1,75,-1,-1,-1,-1,-1,-1,-1,-1,-1,-1,-1,-1,-1,-1,-1,-1,-1,-1,-1,-1,-1,-1,-1,-1,-1,-1,-1,-1,-1,-1,-1],"loss_changes":[2.564542E4,7.4025186E3,3.93625E3,8.901592E2,7.0318134E2,7.963037E2,0E0,1.5421289E2,1.16117676E2,4.3347983E2,2.3026727E2,3.2722437E2,2.555332E2,1.6909448E2,1.6539062E1,1.2541016E2,1.0416927E1,0E0,2.770972E2,1.0097324E2,9.065027E1,1.3664062E2,1.8443045E1,2.6255428E1,9.6546875E1,0E0,0E0,0E0,0E0,5.298242E1,3.7322098E1,6.909693E0,4.065821E-1,1.4817532E2,5.104718E2,3.051149E1,5.4385384E1,9.834137E0,6.073712E1,4.0689697E1,3.6875305E1,2.1725545E0,0E0,2.746523E0,0E0,7.4015625E1,0E0,0E0,0E0,0E0,0E0,0E0,0E0,0E0,0E0,0E0,0E0,0E0,0E0,0E0,0E0,0E0,0E0,0E0,0E0,0E0,0E0,0E0,0E0,0E0,0E0,0E0,0E0,0E0,0E0,0E0,0E0],"parents":[2147483647,0,0,1,1,2,2,3,3,4,4,5,5,7,7,8,8,9,9,10,10,11,11,12,12,13,13,14,14,15,15,16,16,18,18,19,19,20,20,21,21,22,22,23,23,24,24,29,29,30,30,31,31,32,32,33,33,34,34,35,35,36,36,37,37,38,38,39,39,40,40,41,41,43,43,45,45],"right_children":[2,4,6,8,10,12,-1,14,16,18,20,22,24,26,28,30,32,-1,34,36,38,40,42,44,46,-1,-1,-1,-1,48,50,52,54,56,58,60,62,64,66,68,70,72,-1,74,-1,76,-1,-1,-1,-1,-1,-1,-1,-1,-1,-1,-1,-1,-1,-1,-1,-1,-1,-1,-1,-1,-1,-1,-1,-1,-1,-1,-1,-1,-1,-1,-1],"split_conditions":[2.40624E1,1.28112E1,4.20804E1,6.5718E0,9E0,2.91186E1,9.721179E-1,1.24509E5,1.2018E4,6.8002E0,-1.172E3,2.31E2,2.1567E5,1.13334E1,8.78E2,2.462618E1,-2.202816E0,-4.5703816E-1,3E0,1.19448E1,4.18456E5,-1.332E3,2.589132E1,4.18456E5,1.82238E1,-6.735499E-1,-3.375588E-1,-3.274907E-1,-4.2191368E-1,4.48207E5,1.574183E1,2.43762E5,6.09E-1,1.17716E5,3.066E0,9.3862E0,-1.856E3,-2.191E3,1E0,5.156497E0,2.1425413E1,4.24129E5,-8.003669E-2,3.11412E1,2.0937574E-1,-2.6777016E1,6.892941E-1,-2.3745747E-1,-2.943908E-1,8.429318E-3,-1.5929352E-1,-1.5372223E-1,-9.7494124E-4,-1.5909577E-2,8.8309925E-3,1.5839903E-1,-3.9851308E-2,7.088879E-2,3.3476326E-1,-2.3787547E-2,2.5720766E-1,2.3717485E-2,-1.143788E-1,-2.5146246E-1,-1.21152E-1,-1.24645315E-1,-9.9763E-3,2.4269643E-1,4.0124804E-1,1.4355929E-1,2.5834954E-1,-1.2150384E-2,5.743718E-2,-3.7558485E-2,3.8535055E-2,2.0659438E-1,4.7166258E-1],"split_indices":[12,12,12,12,3,12,0,6,9,14,10,23,7,14,10,24,2,0,3,14,5,10,24,5,0,0,0,0,0,5,15,7,0,6,0,14,10,9,25,18,24,5,0,14,0,2,0,0,0,0,0,0,0,0,0,0,0,0,0,0,0,0,0,0,0,0,0,0,0,0,0,0,0,0,0,0,0],"split_type":[0,0,0,0,0,0,0,0,0,0,0,0,0,0,0,0,0,0,0,0,0,0,0,0,0,0,0,0,0,0,0,0,0,0,0,0,0,0,0,0,0,0,0,0,0,0,0,0,0,0,0,0,0,0,0,0,0,0,0,0,0,0,0,0,0,0,0,0,0,0,0,0,0,0,0,0,0],"sum_hessian":[9.9E2,7.57E2,2.33E2,3.82E2,3.75E2,2.02E2,3.1E1,1.05E2,2.77E2,2.51E2,1.24E2,9.9E1,1.03E2,2.4E1,8.1E1,2.69E2,8E0,3E0,2.48E2,3.8E1,8.6E1,8.9E1,1E1,6E0,9.7E1,1.4E1,1E1,3.9E1,4.2E1,2.49E2,2E1,3E0,5E0,7.5E1,1.73E2,5E0,3.3E1,1.9E1,6.7E1,4.2E1,4.7E1,6E0,4E0,3E0,3E0,8.8E1,9E0,1.25E2,1.24E2,4E0,1.6E1,2E0,1E0,3E0,2E0,1E1,6.5E1,1.53E2,2E1,1E0,4E0,2.4E1,9E0,1.4E1,5E0,5.2E1,1.5E1,1.2E1,3E1,1.5E1,3.2E1,1E0,5E0,1E0,2E0,5E0,8.3E1],"tree_param":{"num_deleted":"0","num_feature":"28","num_nodes":"77","size_leaf_vector":"1"}},{"base_weights":[-1.24417536E-1,-2.9936824E0,8.088093E0,-5.398009E0,3.5735828E-1,6.504167E0,1.8129894E1,-8.119808E0,-4.4630523E0,-1.9052031E0,1.1687663E0,4.650211E0,8.897128E0,9.7869843E-1,5.4046994E-1,-1.0882386E1,-7.2643867E0,-3.544288E0,-5.6735888E0,-2.9136193E0,-2.6546987E-2,1.0086045E0,3.5033634E-1,-1.2260994E0,5.2581925E0,3.8294272E0,9.6961565E0,-6.0056543E-1,-2.7468675E-1,-7.669275E0,-2.9021466E-1,-3.9902055E0,-6.124081E-1,-5.179669E-1,-5.3843117E0,-2.3905349E-1,-2.2048895E0,-9.7491646E-1,9.8681694E-1,6.0815984E-1,3.1765127E0,-2.7765708E0,1.0455459E0,3.152761E0,6.0049486E0,2.2389972E0,2.920953E-1,1.247821E1,8.910519E0,-3.8600305E-1,-1.1047421E-1,-2.2667964E-1,-9.367152E-2,-7.29407E-2,2.2037636E-1,-2.751421E-1,-1.2323224E-1,-1.7099957E-1,-5.5262264E-2,-6.095603E-2,3.123808E-3,-1.2374524E-2,9.185937E-2,-4.1544918E-2,8.917682E-2,3.3171054E-2,2.2294234E-1,-2.3910904E-2,-1.5182951E-1,1.1563641E-1,-8.311368E-3,4.3396037E-2,1.9245966E-1,3.698767E-1,2.1480368E-1,1.4432988E-1,5.070389E-2,9.728136E-2,6.525337E-1,3.2798302E-1,4.90118E-1],"categories":[],"categories_nodes":[],"categories_segments":[],"categories_sizes":[],"default_left":[0,0,0,0,0,0,0,0,0,0,0,0,0,0,0,0,0,0,0,0,0,0,0,0,0,0,0,0,0,0,0,0,0,0,0,0,0,0,0,0,0,0,0,0,0,0,0,0,0,0,0,0,0,0,0,0,0,0,0,0,0,0,0,0,0,0,0,0,0,0,0,0,0,0,0,0,0,0,0,0,0],"id":10,"left_children":[1,3,5,7,9,11,13,15,17,19,21,23,25,-1,-1,27,29,31,33,35,37,39,-1,41,43,45,47,-1,-1,49,-1,51,53,-1,55,-1,57,59,61,63,65,67,69,71,73,75,-1,77,79,-1,-1,-1,-1,-1,-1,-1,-1,-1,-1,-1,-1,-1,-1,-1,-1,-1,-1,-1,-1,-1,-1,-1,-1,-1,-1,-1,-1,-1,-1,-1,-1],"loss_changes":[2.375303E4,6.0205044E3,4.0334062E3,1.0707334E3,5.76851E2,9.656992E2,1.5841504E2,1.8089502E2,3.424668E2,1.5716348E2,2.0892197E2,4.7089673E2,3.5969482E2,0E0,0E0,8.001416E1,6.9174805E0,2.4334326E2,1.3263379E2,6.0928253E1,2.9793365E1,1.9426495E2,0E0,4.869061E1,1.6659253E2,3.4930588E1,7.240967E1,0E0,0E0,9.6606445E-1,0E0,1.789939E2,1.1690121E2,0E0,3.24646E1,0E0,5.1003418E1,4.1295357E0,1.6198965E1,3.262375E2,1.0983368E2,3.3287735E0,9.597666E0,4.9170013E1,1.7287866E2,5.0053444E0,0E0,7.108081E1,8.0365234E1,0E0,0E0,0E0,0E0,0E0,0E0,0E0,0E0,0E0,0E0,0E0,0E0,0E0,0E0,0E0,0E0,0E0,0E0,0E0,0E0,0E0,0E0,0E0,0E0,0E0,0E0,0E0,0E0,0E0,0E0,0E0,0E0],"parents":[2147483647,0,0,1,1,2,2,3,3,4,4,5,5,6,6,7,7,8,8,9,9,10,10,11,11,12,12,15,15,16,16,17,17,18,18,19,19,20,20,21,21,23,23,24,24,25,25,26,26,29,29,31,31,32,32,34,34,36,36,37,37,38,38,39,39,40,40,41,41,42,42,43,43,44,44,45,45,47,47,48,48],"right_children":[2,4,6,8,10,12,14,16,18,20,22,24,26,-1,-1,28,30,32,34,36,38,40,-1,42,44,46,48,-1,-1,50,-1,52,54,-1,56,-1,58,60,62,64,66,68,70,72,74,76,-1,78,80,-1,-1,-1,-1,-1,-1,-1,-1,-1,-1,-1,-1,-1,-1,-1,-1,-1,-1,-1,-1,-1,-1,-1,-1,-1,-1,-1,-1,-1,-1,-1,-1],"split_conditions":[2.254E1,1.3953E1,4.20804E1,6.5718E0,-1.1059546E1,3.02738E1,3.6898453E1,-7.8172935E1,-2.91312E0,1.89038E1,2.6081274E1,2.1567E5,-3.937703E1,9.7869843E-1,5.4046994E-1,5.0257607E0,7.8026776E0,-9.212112E0,-1.280076E1,-4.845436E1,2.19734E1,7.340378E1,3.5033634E-1,-6.201216E0,4.655267E0,3.5971E1,-6.02448E0,-6.0056543E-1,-2.7468675E-1,1.2173685E1,-2.9021466E-1,2.478009E1,8.0766E0,-5.179669E-1,9.609143E0,-2.3905349E-1,2.06072E1,9.27E1,-1.584E3,1.67374E1,9.9352E0,1.3953E1,2.00886E1,8.8E1,1E0,1.23018E1,2.920953E-1,9.7776E0,2.539913E-1,-3.8600305E-1,-1.1047421E-1,-2.2667964E-1,-9.367152E-2,-7.29407E-2,2.2037636E-1,-2.751421E-1,-1.2323224E-1,-1.7099957E-1,-5.5262264E-2,-6.095603E-2,3.123808E-3,-1.2374524E-2,9.185937E-2,-4.1544918E-2,8.917682E-2,3.3171054E-2,2.2294234E-1,-2.3910904E-2,-1.5182951E-1,1.1563641E-1,-8.311368E-3,4.3396037E-2,1.9245966E-1,3.698767E-1,2.1480368E-1,1.4432988E-1,5.070389E-2,9.728136E-2,6.525337E-1,3.2798302E-1,4.90118E-1],"split_indices":[12,12,12,12,19,12,17,19,1,12,24,7,19,0,0,18,19,2,2,19,13,19,0,1,18,13,1,0,0,18,0,24,0,0,24,0,14,8,11,14,14,14,0,8,25,0,0,0,19,0,0,0,0,0,0,0,0,0,0,0,0,0,0,0,0,0,0,0,0,0,0,0,0,0,0,0,0,0,0,0,0],"split_type":[0,0,0,0,0,0,0,0,0,0,0,0,0,0,0,0,0,0,0,0,0,0,0,0,0,0,0,0,0,0,0,0,0,0,0,0,0,0,0,0,0,0,0,0,0,0,0,0,0,0,0,0,0,0,0,0,0,0,0,0,0,0,0,0,0,0,0,0,0,0,0,0,0,0,0,0,0,0,0,0,0],"sum_hessian":[1.006E3,7.46E2,2.6E2,4.34E2,3.12E2,2.26E2,3.4E1,1.09E2,3.25E2,8.2E1,2.3E2,1.29E2,9.7E1,2.7E1,7E0,2.3E1,8.6E1,1.87E2,1.38E2,5.3E1,2.9E1,2.25E2,5E0,1.2E1,1.17E2,1.4E1,8.3E1,1.8E1,5E0,6.4E1,2.2E1,1.62E2,2.5E1,6E0,1.32E2,1.3E1,4E1,1.5E1,1.4E1,1.91E2,3.4E1,7E0,5E0,3.2E1,8.5E1,9E0,5E0,1.5E1,6.8E1,6.3E1,1E0,1.28E2,3.4E1,2.2E1,3E0,1.26E2,6E0,1.8E1,2.2E1,1.2E1,3E0,6E0,8E0,8.6E1,1.05E2,1.2E1,2.2E1,1E0,6E0,2E0,3E0,8E0,2.4E1,4.5E1,4E1,5E0,4E0,1E0,1.4E1,2.1E1,4.7E1],"tree_param":{"num_deleted":"0","num_feature":"28","num_nodes":"81","size_leaf_vector":"1"}},{"base_weights":[2.6976282E-2,-2.4779797E0,8.665022E0,-5.2451143E0,3.5376152E-1,6.9446077E0,1.6132603E1,-7.3065176E0,-4.2644415E0,-3.9610171E0,7.607356E-1,1.6865155E0,7.6526294E0,8.8910115E-1,5.008818E-1,-1.105945E1,-6.805672E0,-4.405225E0,-2.1985808E-1,-1.6383034E0,-5.047906E0,-1.0679498E0,1.4098763E0,6.857802E-2,4.1956873E0,5.2490726E0,9.028514E0,-1.2828834E-1,-5.776722E-1,-2.9595166E-1,-3.8574454E-1,-4.6357055E0,-2.2701776E0,-8.223839E-2,1.212172E-1,-1.2772427E-1,-6.1896133E-1,-2.8355107E-1,-8.975547E-2,-1.4709572E0,2.4768245E-1,3.5892866E0,9.815579E-1,-7.171399E-1,6.833392E-2,8.9184955E-2,2.3150063E-1,2.5709944E0,6.144145E0,9.932246E0,5.8838787E0,-2.578412E-1,-1.8399702E-1,2.5073275E-2,-1.731789E-1,-1.25777E-2,1.7476423E-2,2.1283055E-2,-4.320043E-2,-1.8470685E-1,-5.1523894E-2,2.7687857E-1,1.08867936E-1,-4.8260745E-2,7.001158E-2,-6.7635395E-2,-3.3988317E-3,1.331544E-1,2.7437354E-2,3.6236653E-1,2.2691254E-1,3.7697506E-1,5.536769E-1,2.0137976E-1,3.6437783E-1],"categories":[],"categories_nodes":[],"categories_segments":[],"categories_sizes":[],"default_left":[0,0,0,0,0,0,0,0,0,0,0,0,0,0,0,0,0,0,0,0,0,0,0,0,0,0,0,0,0,0,0,0,0,0,0,0,0,0,0,0,0,0,0,0,0,0,0,0,0,0,0,0,0,0,0,0,0,0,0,0,0,0,0,0,0,0,0,0,0,0,0,0,0,0,0],"id":11,"left_children":[1,3,5,7,9,11,13,15,17,19,21,23,25,-1,-1,27,29,31,33,35,37,39,41,43,45,47,49,-1,-1,-1,-1,51,53,-1,55,-1,57,-1,-1,59,-1,61,63,65,-1,-1,-1,67,69,71,73,-1,-1,-1,-1,-1,-1,-1,-1,-1,-1,-1,-1,-1,-1,-1,-1,-1,-1,-1,-1,-1,-1,-1,-1],"loss_changes":[2.1464654E4,6.0275933E3,2.7529219E3,7.552285E2,6.720505E2,6.68374E2,2.3539844E2,1.578081E2,1.5049512E2,7.503949E1,4.157946E2,9.3084984E1,4.8503906E2,0E0,0E0,2.49021E1,4.4624023E1,1.1594238E2,5.059389E0,9.625706E0,3.441095E1,2.3054752E2,2.3731519E2,1.6279211E1,1.1697388E0,1.3042493E2,2.285918E2,0E0,0E0,0E0,0E0,9.607666E1,9.104422E1,0E0,8.5389614E-1,0E0,2.159648E0,0E0,0E0,8.138931E1,0E0,1.03477905E2,1.782201E2,4.0339212E0,0E0,0E0,0E0,1.7046585E0,4.6831787E1,1.2678467E2,3.5789246E1,0E0,0E0,0E0,0E0,0E0,0E0,0E0,0E0,0E0,0E0,0E0,0E0,0E0,0E0,0E0,0E0,0E0,0E0,0E0,0E0,0E0,0E0,0E0,0E0],"parents":[2147483647,0,0,1,1,2,2,3,3,4,4,5,5,6,6,7,7,8,8,9,9,10,10,11,11,12,12,15,15,16,16,17,17,18,18,19,19,20,20,21,21,22,22,23,23,24,24,25,25,26,26,31,31,32,32,34,34,36,36,39,39,41,41,42,42,43,43,47,47,48,48,49,49,50,50],"right_children":[2,4,6,8,10,12,14,16,18,20,22,24,26,-1,-1,28,30,32,34,36,38,40,42,44,46,48,50,-1,-1,-1,-1,52,54,-1,56,-1,58,-1,-1,60,-1,62,64,66,-1,-1,-1,68,70,72,74,-1,-1,-1,-1,-1,-1,-1,-1,-1,-1,-1,-1,-1,-1,-1,-1,-1,-1,-1,-1,-1,-1,-1,-1],"split_conditions":[2.50152E1,1.2982E1,3.91824E1,6.9016E0,-4.9961132E1,-3.5559177E1,1.8E2,-8.472008E1,1.2018E4,1.11724E5,1.65282E1,3.872105E1,2.0874743E1,8.8910115E-1,5.008818E-1,-1.575E0,8.78E2,2.462618E1,8.361187E0,1.118496E1,1.88276E1,8.8588165E1,1.18602E5,-4.4458744E1,-4.913538E1,6.8602425E1,2.5826155E1,-1.2828834E-1,-5.776722E-1,-2.9595166E-1,-3.8574454E-1,6.3855114E0,1.01094E1,-8.223839E-2,6.09E-1,-1.2772427E-1,3.17856E1,-2.8355107E-1,-8.975547E-2,1.269224E1,2.4768245E-1,-1.401E3,2.22005E5,-6.093024E0,6.833392E-2,8.9184955E-2,2.3150063E-1,1.54518E1,-2.053E3,1.4328395E0,-4.1454E0,-2.578412E-1,-1.8399702E-1,2.5073275E-2,-1.731789E-1,-1.25777E-2,1.7476423E-2,2.1283055E-2,-4.320043E-2,-1.8470685E-1,-5.1523894E-2,2.7687857E-1,1.08867936E-1,-4.8260745E-2,7.001158E-2,-6.7635395E-2,-3.3988317E-3,1.331544E-1,2.7437354E-2,3.6236653E-1,2.2691254E-1,3.7697506E-1,5.536769E-1,2.0137976E-1,3.6437783E-1],"split_indices":[12,12,12,12,20,20,23,20,9,6,12,15,17,0,0,0,10,24,15,18,12,20,6,20,20,20,24,0,0,0,0,20,13,0,0,0,0,0,0,15,0,10,7,1,0,0,0,0,10,20,0,0,0,0,0,0,0,0,0,0,0,0,0,0,0,0,0,0,0,0,0,0,0,0,0],"split_type":[0,0,0,0,0,0,0,0,0,0,0,0,0,0,0,0,0,0,0,0,0,0,0,0,0,0,0,0,0,0,0,0,0,0,0,0,0,0,0,0,0,0,0,0,0,0,0,0,0,0,0,0,0,0,0,0,0,0,0,0,0,0,0,0,0,0,0,0,0,0,0,0,0,0,0],"sum_hessian":[9.9E2,7.68E2,2.22E2,3.88E2,3.8E2,1.82E2,4E1,1.23E2,2.65E2,3.2E1,3.48E2,2.2E1,1.6E2,3E1,1E1,1.2E1,1.11E2,2.56E2,9E0,1.1E1,2.1E1,9.1E1,2.57E2,1.4E1,8E0,6E1,1E2,1E0,1.1E1,6E1,5.1E1,2.3E2,2.6E1,1E0,8E0,5E0,6E0,1.7E1,4E0,8.6E1,5E0,4.1E1,2.16E2,9E0,5E0,2E0,6E0,1.6E1,4.4E1,7.6E1,2.4E1,1.46E2,8.4E1,8E0,1.8E1,3E0,5E0,1E0,5E0,1.3E1,7.3E1,1.6E1,2.5E1,3.8E1,1.78E2,4E0,5E0,1.5E1,1E0,2.4E1,2E1,2.7E1,4.9E1,1.2E1,1.2E1],"tree_param":{"num_deleted":"0","num_feature":"28","num_nodes":"75","size_leaf_vector":"1"}},{"base_weights":[8.7997265E-2,-2.4623911E0,7.738812E0,-4.818777E0,4.2953384E-1,6.405151E0,1.5525812E1,-6.969811E0,-4.01044E0,-3.2552936E0,8.2422364E-1,3.004711E-1,6.925146E0,4.347871E-1,8.437298E-1,-1.0687315E1,-6.4591193E0,-3.215444E0,-5.12315E0,-2.2232306E-1,-2.143567E0,1.125644E0,-1.7125884E0,-6.312754E-1,1.8597014E-1,4.8286834E0,8.236679E0,-5.602025E-1,-1.2508114E-1,-5.5411997E0,-3.6979267E-1,-9.9477434E-1,-3.6707864E0,-4.841671E-1,-4.8118515E0,-1.5017688E-1,-5.856652E-1,1.4620961E-1,1.74858E0,-2.4521677E0,-1.1092534E0,6.7281884E-1,-1.3506044E0,3.8075616E0,6.28695E0,3.2774975E0,8.51244E0,-2.8563842E-1,-1.5939634E-1,5.077282E-3,-1.5484901E-1,-2.7373847E-1,-1.6660243E-1,-2.6054806E-1,-1.8734667E-1,-4.0223435E-2,2.3648977E-2,1.4866236E-1,-1.3597274E-2,3.802929E-2,1.7804831E-1,-1.3319033E-1,-6.285596E-2,-8.448278E-2,-3.6990996E-2,4.747503E-2,3.981845E-3,-1.4946671E-2,-1.0009481E-1,1.05927564E-1,2.4496715E-1,3.4048212E-1,1.4870624E-1,4.0659E-2,1.7566872E-1,3.2479346E-1,4.644142E-1],"categories":[],"categories_nodes":[],"categories_segments":[],"categories_sizes":[],"default_left":[0,0,0,0,0,0,0,0,0,0,0,0,0,0,0,0,0,0,0,0,0,0,0,0,0,0,0,0,0,0,0,0,0,0,0,0,0,0,0,0,0,0,0,0,0,0,0,0,0,0,0,0,0,0,0,0,0,0,0,0,0,0,0,0,0,0,0,0,0,0,0,0,0,0,0,0,0],"id":12,"left_children":[1,3,5,7,9,11,13,15,17,19,21,23,25,-1,-1,27,29,31,33,-1,35,37,39,41,-1,43,45,-1,-1,47,-1,49,51,-1,53,-1,55,57,59,61,63,65,67,69,71,73,75,-1,-1,-1,-1,-1,-1,-1,-1,-1,-1,-1,-1,-1,-1,-1,-1,-1,-1,-1,-1,-1,-1,-1,-1,-1,-1,-1,-1,-1,-1],"loss_changes":[1.9590143E4,5.133382E3,2.507246E3,6.936338E2,4.9571243E2,6.835908E2,1.8490527E2,1.4360107E2,2.5244531E2,3.4169067E1,2.366743E2,5.9688366E1,5.0739453E2,0E0,0E0,2.2729492E1,4.5862793E1,1.7835791E2,1.3085254E2,0E0,2.3696175E1,1.6752863E2,1.200499E1,1.4979803E1,0E0,9.3698364E1,1.3757324E2,0E0,0E0,3.9942627E0,0E0,7.4064575E1,7.280835E1,0E0,3.1052246E1,0E0,2.2335782E0,1.2847969E2,2.9811694E2,1.9213867E-1,3.0383625E0,9.091203E-1,6.251013E0,7.997803E1,3.3426514E1,1.7931976E0,1.1802246E2,0E0,0E0,0E0,0E0,0E0,0E0,0E0,0E0,0E0,0E0,0E0,0E0,0E0,0E0,0E0,0E0,0E0,0E0,0E0,0E0,0E0,0E0,0E0,0E0,0E0,0E0,0E0,0E0,0E0,0E0],"parents":[2147483647,0,0,1,1,2,2,3,3,4,4,5,5,6,6,7,7,8,8,9,9,10,10,11,11,12,12,15,15,16,16,17,17,18,18,20,20,21,21,22,22,23,23,25,25,26,26,29,29,31,31,32,32,34,34,36,36,37,37,38,38,39,39,40,40,41,41,42,42,43,43,44,44,45,45,46,46],"right_children":[2,4,6,8,10,12,14,16,18,20,22,24,26,-1,-1,28,30,32,34,-1,36,38,40,42,-1,44,46,-1,-1,48,-1,50,52,-1,54,-1,56,58,60,62,64,66,68,70,72,74,76,-1,-1,-1,-1,-1,-1,-1,-1,-1,-1,-1,-1,-1,-1,-1,-1,-1,-1,-1,-1,-1,-1,-1,-1,-1,-1,-1,-1,-1,-1],"split_conditions":[2.40624E1,1.3953E1,3.91824E1,6.9016E0,-3.6855938E1,2.1567E5,4.4158268E1,-8.472008E1,-2.91312E0,-5.6107082E1,1.1E1,3.872105E1,2.86324E1,4.347871E-1,8.437298E-1,-1.0781904E1,8.78E2,-2.408E3,-1.280076E1,-2.2232306E-1,2.0707172E1,1.6944233E1,-5.6196012E0,-1.172E3,1.8597014E-1,2.172496E1,-3.0196383E1,-5.602025E-1,-1.2508114E-1,3.1056192E1,-3.6979267E-1,2.78E2,-5.326973E1,-4.841671E-1,5.7565083E1,-1.5017688E-1,3.22244E1,1.17716E5,7.252089E0,-8.633688E0,1.40584E1,3.31418E1,-5.4127415E1,6.224219E1,1.34E3,3.18724E1,1.16E2,-2.8563842E-1,-1.5939634E-1,5.077282E-3,-1.5484901E-1,-2.7373847E-1,-1.6660243E-1,-2.6054806E-1,-1.8734667E-1,-4.0223435E-2,2.3648977E-2,1.4866236E-1,-1.3597274E-2,3.802929E-2,1.7804831E-1,-1.3319033E-1,-6.285596E-2,-8.448278E-2,-3.6990996E-2,4.747503E-2,3.981845E-3,-1.4946671E-2,-1.0009481E-1,1.05927564E-1,2.4496715E-1,3.4048212E-1,1.4870624E-1,4.0659E-2,1.7566872E-1,3.2479346E-1,4.644142E-1],"split_indices":[12,12,12,12,19,7,20,20,1,19,3,15,12,0,0,2,10,10,2,0,15,15,19,10,0,24,20,0,0,20,0,23,19,0,20,0,13,6,20,2,14,12,2,20,10,12,23,0,0,0,0,0,0,0,0,0,0,0,0,0,0,0,0,0,0,0,0,0,0,0,0,0,0,0,0,0,0],"split_type":[0,0,0,0,0,0,0,0,0,0,0,0,0,0,0,0,0,0,0,0,0,0,0,0,0,0,0,0,0,0,0,0,0,0,0,0,0,0,0,0,0,0,0,0,0,0,0,0,0,0,0,0,0,0,0,0,0,0,0,0,0,0,0,0,0,0,0,0,0,0,0,0,0,0,0,0,0],"sum_hessian":[1.002E3,7.52E2,2.5E2,4.14E2,3.38E2,2.15E2,3.5E1,1.11E2,3.03E2,3.2E1,3.06E2,1.7E1,1.98E2,7E0,2.8E1,1.1E1,1E2,1.79E2,1.24E2,1.4E1,1.8E1,2.74E2,3.2E1,1.4E1,3E0,7.8E1,1.2E2,1E1,1E0,5.4E1,4.6E1,3.1E1,1.48E2,6E0,1.18E2,1.1E1,7E0,1.07E2,1.67E2,1.3E1,1.9E1,5E0,9E0,4.8E1,3E1,7E0,1.13E2,4.9E1,5E0,2.1E1,1E1,2.1E1,1.27E2,8.3E1,3.5E1,6E0,1E0,1.3E1,9.4E1,1.09E2,5.8E1,1E1,3E0,6E0,1.3E1,3E0,2E0,4E0,5E0,2E1,2.8E1,2.5E1,5E0,1E0,6E0,3.4E1,7.9E1],"tree_param":{"num_deleted":"0","num_feature":"28","num_nodes":"77","size_leaf_vector":"1"}},{"base_weights":[8.4346786E-2,-2.626073E0,6.7343645E0,-4.8689218E0,-1.722459E-1,5.3720746E0,1.5148433E1,-7.0534334E0,-4.0863714E0,-4.32291E0,3.4545076E-1,3.36839E0,6.7803636E0,8.0500555E-1,4.180966E-1,-9.664561E0,-6.2497044E0,-4.7993107E0,-3.3747787E0,-5.0158772E0,-2.4034913E0,-1.0125388E0,9.932552E-1,3.8220081E0,-8.9667505E-1,9.001029E-1,7.2963862E0,-5.92055E-1,-3.304713E-1,-6.367257E0,-1.2562758E-1,-3.595521E0,-5.4359794E0,-4.0174103E0,-1.900275E0,-2.616477E-1,-7.674715E-2,-5.192976E-1,-1.486928E-1,-1.4989028E0,1.421623E0,-3.9532328E-1,1.5235505E0,4.9171753E0,2.671191E0,-5.2826714E-2,-1.1820539E-1,-2.6183623E-1,1.7899625E-1,5.437049E0,8.135658E0,-3.3132944E-1,-2.320328E-1,-1.8811959E-1,1.3646031E-2,-3.0604124E-1,-2.239133E-1,-1.08132504E-1,-2.1135311E-1,-1.1842028E-1,4.8967417E-2,-7.7384E-3,-2.9460907E-2,-1.9933335E-1,-4.4575192E-2,-8.811505E-3,1.864723E-1,-6.308938E-2,7.248093E-2,1.9913808E-2,1.0761843E-1,1.7838989E-1,2.8767976E-1,8.038622E-2,1.9516382E-1,9.2554095E-5,-8.957959E-3,3.238767E-2,-6.504883E-2,2.2572024E-1,4.107432E-1,2.0870002E-1,4.527664E-1],"categories":[],"categories_nodes":[],"categories_segments":[],"categories_sizes":[],"default_left":[0,0,0,0,0,0,0,0,0,0,0,0,0,0,0,0,0,0,0,0,0,0,0,0,0,0,0,0,0,0,0,0,0,0,0,0,0,0,0,0,0,0,0,0,0,0,0,0,0,0,0,0,0,0,0,0,0,0,0,0,0,0,0,0,0,0,0,0,0,0,0,0,0,0,0,0,0,0,0,0,0,0,0],"id":13,"left_children":[1,3,5,7,9,11,13,15,17,19,21,23,25,-1,-1,27,29,31,33,35,37,39,41,43,45,47,49,-1,-1,51,-1,53,55,57,59,-1,-1,61,-1,63,65,67,69,71,73,-1,75,77,-1,79,81,-1,-1,-1,-1,-1,-1,-1,-1,-1,-1,-1,-1,-1,-1,-1,-1,-1,-1,-1,-1,-1,-1,-1,-1,-1,-1,-1,-1,-1,-1,-1,-1],"loss_changes":[1.8114121E4,3.9287056E3,3.2541797E3,6.088174E2,7.3637787E2,6.882471E2,1.2371387E2,1.4316748E2,1.2433154E2,3.8487915E1,2.6931778E2,2.0850647E2,4.3948145E2,0E0,0E0,6.137915E1,1.7829102E1,8.468701E1,1.2691968E2,1.2369751E1,1.1351822E1,1.1933585E2,1.530281E2,1.07857544E2,1.2440138E0,4.1416626E1,1.6643213E2,0E0,0E0,2.3823242E0,0E0,3.3303406E1,2.9651367E1,2.8965942E1,6.2981262E1,0E0,0E0,1.0760307E-2,0E0,1.2186429E2,6.3345795E1,9.454653E1,1.0528168E2,3.364734E1,5.7928375E1,0E0,2.2285324E-2,1.0294624E1,0E0,7.8246826E1,2.937539E2,0E0,0E0,0E0,0E0,0E0,0E0,0E0,0E0,0E0,0E0,0E0,0E0,0E0,0E0,0E0,0E0,0E0,0E0,0E0,0E0,0E0,0E0,0E0,0E0,0E0,0E0,0E0,0E0,0E0,0E0,0E0,0E0],"parents":[2147483647,0,0,1,1,2,2,3,3,4,4,5,5,6,6,7,7,8,8,9,9,10,10,11,11,12,12,15,15,16,16,17,17,18,18,19,19,20,20,21,21,22,22,23,23,24,24,25,25,26,26,29,29,31,31,32,32,33,33,34,34,37,37,39,39,40,40,41,41,42,42,43,43,44,44,46,46,47,47,49,49,50,50],"right_children":[2,4,6,8,10,12,14,16,18,20,22,24,26,-1,-1,28,30,32,34,36,38,40,42,44,46,48,50,-1,-1,52,-1,54,56,58,60,-1,-1,62,-1,64,66,68,70,72,74,-1,76,78,-1,80,82,-1,-1,-1,-1,-1,-1,-1,-1,-1,-1,-1,-1,-1,-1,-1,-1,-1,-1,-1,-1,-1,-1,-1,-1,-1,-1,-1,-1,-1,-1,-1,-1],"split_conditions":[2.19734E1,1.25912E1,3.91824E1,6.5718E0,-3.937703E1,2.74848E1,7E0,1.24509E5,5.971488E0,-4.845436E1,1.64476E1,9E0,2.1567E5,8.0500555E-1,4.180966E-1,-9.5801025E1,9.02299E0,2.21809E5,8.655E0,1.87682E1,-8.12E2,5.447184E1,-6.1240377E0,-1.332E3,-3.715992E0,3.872105E1,2.539913E-1,-5.92055E-1,-3.304713E-1,-1.26504E0,-1.2562758E-1,2.80184E1,-5.84E2,-3.443E3,4.6431328E1,-2.616477E-1,-7.674715E-2,2.75814E1,-1.486928E-1,1.269224E1,1.12694E1,2.1301426E1,1.6490574E1,1.8910229E1,-7.83888E-1,-5.2826714E-2,-7.1232E0,-1.172E3,1.7899625E-1,4.4333595E1,2.0784357E1,-3.3132944E-1,-2.320328E-1,-1.8811959E-1,1.3646031E-2,-3.0604124E-1,-2.239133E-1,-1.08132504E-1,-2.1135311E-1,-1.1842028E-1,4.8967417E-2,-7.7384E-3,-2.9460907E-2,-1.9933335E-1,-4.4575192E-2,-8.811505E-3,1.864723E-1,-6.308938E-2,7.248093E-2,1.9913808E-2,1.0761843E-1,1.7838989E-1,2.8767976E-1,8.038622E-2,1.9516382E-1,9.2554095E-5,-8.957959E-3,3.238767E-2,-6.504883E-2,2.2572024E-1,4.107432E-1,2.0870002E-1,4.527664E-1],"split_indices":[12,12,12,12,19,12,3,6,19,19,12,3,7,0,0,19,24,7,14,12,10,19,19,10,2,15,19,0,0,2,0,14,11,11,19,0,0,0,0,15,14,15,15,24,2,0,0,10,0,15,15,0,0,0,0,0,0,0,0,0,0,0,0,0,0,0,0,0,0,0,0,0,0,0,0,0,0,0,0,0,0,0,0],"split_type":[0,0,0,0,0,0,0,0,0,0,0,0,0,0,0,0,0,0,0,0,0,0,0,0,0,0,0,0,0,0,0,0,0,0,0,0,0,0,0,0,0,0,0,0,0,0,0,0,0,0,0,0,0,0,0,0,0,0,0,0,0,0,0,0,0,0,0,0,0,0,0,0,0,0,0,0,0,0,0,0,0,0,0],"sum_hessian":[1.003E3,7.13E2,2.9E2,3.72E2,3.41E2,2.51E2,3.9E1,9.6E1,2.76E2,3.7E1,3.04E2,1.05E2,1.46E2,3.3E1,6E0,2E1,7.6E1,1.35E2,1.41E2,2.6E1,1.1E1,9.8E1,2.06E2,9.5E1,1E1,1.2E1,1.34E2,1E1,1E1,7.3E1,3E0,4.9E1,8.6E1,9.7E1,4.4E1,2.4E1,2E0,3E0,8E0,8.2E1,1.6E1,5.7E1,1.49E2,4.7E1,4.8E1,8E0,2E0,9E0,3E0,4.4E1,9E1,6.1E1,1.2E1,4.7E1,2E0,4.7E1,3.9E1,1.1E1,8.6E1,3.8E1,6E0,1E0,2E0,1.5E1,6.7E1,1E1,6E0,3.9E1,1.8E1,5.4E1,9.5E1,2E1,2.7E1,2.7E1,2.1E1,1E0,1E0,5E0,4E0,3.5E1,9E0,1.8E1,7.2E1],"tree_param":{"num_deleted":"0","num_feature":"28","num_nodes":"83","size_leaf_vector":"1"}},{"base_weights":[4.8140608E-2,-2.2203681E0,7.5833254E0,-4.381624E0,5.310798E-1,6.0106096E0,1.4686561E1,-5.971797E0,-3.2033865E0,-2.908275E0,9.139975E-1,6.3544416E0,3.8089815E-1,1.098228E1,8.554036E-1,-7.4043555E0,-5.1632E0,-6.279402E0,-2.9353533E0,-7.3931336E-1,-3.5472124E0,1.1944026E0,-1.7862022E0,4.8397694E0,7.865753E0,1.095656E0,-1.3225317E0,1.2428599E-1,5.658108E-1,-5.521403E-1,-6.422322E0,-3.0795712E0,-5.346907E0,-4.280474E-1,-2.55013E-1,-3.844282E0,-2.0246418E0,-1.0288359E0,1.8267696E-1,-2.5207055E0,-2.0156176E-1,8.203678E-1,3.5882926E0,-6.428864E-1,-2.1911376E0,6.1201367E0,3.4263554E0,6.2940903E0,8.8327875E0,1.3849618E0,5.5390675E-2,-1.9927979E-2,-7.488346E-2,-3.2773253E-1,-1.0380393E-1,-5.3859856E-2,-1.6861632E-1,-2.8562614E-1,-2.0769675E-1,-3.6117285E-2,-2.020885E-1,-1.211583E-1,1.0179851E-1,-5.6260683E-2,-1.1264229E-2,2.1245718E-2,-7.544947E-3,-1.3741629E-1,-4.9880505E-2,-2.4875393E-2,6.512111E-2,5.5359103E-2,2.8209385E-1,-3.6852296E-2,2.7597428E-3,-2.9826513E-2,-1.1637973E-1,3.749826E-2,3.23462E-1,1.953815E-1,-2.1670636E-2,1.850316E-1,3.6244956E-1,7.8183174E-2,4.4723296E-1,7.4669056E-2,1.836114E-2,4.887104E-4,3.6655904E-3],"categories":[],"categories_nodes":[],"categories_segments":[],"categories_sizes":[],"default_left":[0,0,0,0,0,0,0,0,0,0,0,0,0,0,0,0,0,0,0,0,0,0,0,0,0,0,0,0,0,0,0,0,0,0,0,0,0,0,0,0,0,0,0,0,0,0,0,0,0,0,0,0,0,0,0,0,0,0,0,0,0,0,0,0,0,0,0,0,0,0,0,0,0,0,0,0,0,0,0,0,0,0,0,0,0,0,0,0,0],"id":14,"left_children":[1,3,5,7,9,11,13,15,17,19,21,23,25,27,-1,29,31,33,35,37,39,41,43,45,47,49,51,-1,-1,-1,53,55,57,-1,-1,59,61,63,65,67,-1,69,71,73,75,77,79,81,83,85,87,-1,-1,-1,-1,-1,-1,-1,-1,-1,-1,-1,-1,-1,-1,-1,-1,-1,-1,-1,-1,-1,-1,-1,-1,-1,-1,-1,-1,-1,-1,-1,-1,-1,-1,-1,-1,-1,-1],"loss_changes":[1.6990814E4,4.5455176E3,2.4811396E3,7.827715E2,4.4648367E2,3.653579E2,1.7988281E2,1.714336E2,1.860376E2,4.4495728E1,2.3230692E2,3.71688E2,1.6059519E1,2.5779785E1,0E0,1.5418384E2,2.9083984E1,7.4520264E0,1.8260413E2,2.5903773E0,2.7566223E0,2.4418613E2,1.2017448E1,1.4552148E2,7.815283E1,2.631878E0,5.03788E-2,0E0,0E0,0E0,1.6298828E1,3.401802E0,2.3376953E1,0E0,0E0,6.736658E1,1.9426901E2,2.886176E-1,3.065328E-1,1.0718002E0,0E0,1.5311699E2,1.8227472E2,6.3225985E-1,3.181015E0,8.326135E1,8.7143555E1,6.4804565E1,2.8300537E1,2.2399426E-1,1.7359303E-3,0E0,0E0,0E0,0E0,0E0,0E0,0E0,0E0,0E0,0E0,0E0,0E0,0E0,0E0,0E0,0E0,0E0,0E0,0E0,0E0,0E0,0E0,0E0,0E0,0E0,0E0,0E0,0E0,0E0,0E0,0E0,0E0,0E0,0E0,0E0,0E0,0E0,0E0],"parents":[2147483647,0,0,1,1,2,2,3,3,4,4,5,5,6,6,7,7,8,8,9,9,10,10,11,11,12,12,13,13,15,15,16,16,17,17,18,18,19,19,20,20,21,21,22,22,23,23,24,24,25,25,26,26,30,30,31,31,32,32,35,35,36,36,37,37,38,38,39,39,41,41,42,42,43,43,44,44,45,45,46,46,47,47,48,48,49,49,50,50],"right_children":[2,4,6,8,10,12,14,16,18,20,22,24,26,28,-1,30,32,34,36,38,40,42,44,46,48,50,52,-1,-1,-1,54,56,58,-1,-1,60,62,64,66,68,-1,70,72,74,76,78,80,82,84,86,88,-1,-1,-1,-1,-1,-1,-1,-1,-1,-1,-1,-1,-1,-1,-1,-1,-1,-1,-1,-1,-1,-1,-1,-1,-1,-1,-1,-1,-1,-1,-1,-1,-1,-1,-1,-1,-1,-1],"split_conditions":[2.50152E1,1.4603E1,3.91824E1,8.4906E0,-3.6855938E1,9E0,2.959653E1,-7.914648E0,-5.8052914E1,-2.541E3,1.1E1,3.02738E1,4.64352E1,-2.6712E0,8.554036E-1,-9.5801025E1,4.63293E5,2E0,1.05679865E1,3.104616E1,8.96E1,4.5985055E0,3.1271822E0,-1.332E3,5.1222787E0,3.31418E1,5.4705E1,1.2428599E-1,5.658108E-1,-5.521403E-1,1.2196357E1,3.9942E0,-5.88E-2,-4.280474E-1,-2.55013E-1,6.94E1,1E0,3.58176E1,2.48346E1,1.89038E1,-2.0156176E-1,3E0,1.25E2,1.5793E1,1.49536E1,-7.3878E0,2.00886E1,3.1277353E1,1.8617773E1,1.80306E1,1.5939E1,-1.9927979E-2,-7.488346E-2,-3.2773253E-1,-1.0380393E-1,-5.3859856E-2,-1.6861632E-1,-2.8562614E-1,-2.0769675E-1,-3.6117285E-2,-2.020885E-1,-1.211583E-1,1.0179851E-1,-5.6260683E-2,-1.1264229E-2,2.1245718E-2,-7.544947E-3,-1.3741629E-1,-4.9880505E-2,-2.4875393E-2,6.512111E-2,5.5359103E-2,2.8209385E-1,-3.6852296E-2,2.7597428E-3,-2.9826513E-2,-1.1637973E-1,3.749826E-2,3.23462E-1,1.953815E-1,-2.1670636E-2,1.850316E-1,3.6244956E-1,7.8183174E-2,4.4723296E-1,7.4669056E-2,1.836114E-2,4.887104E-4,3.6655904E-3],"split_indices":[12,12,12,12,19,21,19,2,19,11,21,12,0,0,0,19,5,4,15,15,8,16,18,10,19,12,0,0,0,0,18,0,2,0,0,8,25,0,0,12,0,21,11,14,12,0,0,17,15,0,0,0,0,0,0,0,0,0,0,0,0,0,0,0,0,0,0,0,0,0,0,0,0,0,0,0,0,0,0,0,0,0,0,0,0,0,0,0,0],"split_type":[0,0,0,0,0,0,0,0,0,0,0,0,0,0,0,0,0,0,0,0,0,0,0,0,0,0,0,0,0,0,0,0,0,0,0,0,0,0,0,0,0,0,0,0,0,0,0,0,0,0,0,0,0,0,0,0,0,0,0,0,0,0,0,0,0,0,0,0,0,0,0,0,0,0,0,0,0,0,0,0,0,0,0,0,0,0,0,0,0],"sum_hessian":[9.92E2,7.63E2,2.29E2,4.27E2,3.36E2,1.89E2,4E1,1.8E2,2.47E2,3.3E1,3.03E2,1.78E2,1.1E1,1.8E1,2.2E1,6.2E1,1.18E2,1.8E1,2.29E2,8E0,2.5E1,2.75E2,2.8E1,9.1E1,8.7E1,8E0,3E0,1E0,1.7E1,1.1E1,5.1E1,1.1E1,1.07E2,4E0,1.4E1,1.13E2,1.16E2,6E0,2E0,1E1,1.5E1,2.39E2,3.6E1,8E0,2E1,4.6E1,4.5E1,3.6E1,5.1E1,6E0,2E0,1E0,2E0,4.9E1,2E0,2E0,9E0,7.9E1,2.8E1,7E0,1.06E2,1.06E2,1E1,5E0,1E0,1E0,1E0,8E0,2E0,6.4E1,1.75E2,1.7E1,1.9E1,7E0,1E0,2E0,1.8E1,3E0,4.3E1,4E1,5E0,1.1E1,2.5E1,1E0,5E1,5E0,1E0,1E0,1E0],"tree_param":{"num_deleted":"0","num_feature":"28","num_nodes":"89","size_leaf_vector":"1"}},{"base_weights":[5.5342775E-2,-2.016515E0,6.586156E0,-4.862725E0,-2.8188717E-1,5.3697E0,1.2811473E1,-7.306229E0,-4.037177E0,1.2242813E0,-2.2190998E0,6.7065567E-1,4.7099047E0,7.344414E-1,4.2049256E-1,-5.029456E-1,-5.89387E0,-4.16138E0,-2.4115777E-1,-3.2135203E-1,1.9278195E0,-4.5044303E0,-1.5645614E0,5.4804163E0,-8.799211E-1,-3.1487504E-1,-1.8247983E-1,-4.87636E0,-3.5833669E0,1.6122492E-1,-7.6445915E-2,2.1198053E0,-7.9155827E-1,1.2031657E0,4.999103E0,-4.8664618E0,-2.1764734E0,-2.285096E0,-2.4352379E-1,4.354682E0,7.071868E0,9.3451476E-1,-1.7567913E-1,-2.8843662E-1,-2.039491E-1,-2.0547548E-1,-1.1858734E-1,-3.644975E-3,1.3472728E-2,4.796746E-2,1.4351144E-1,-9.288957E-2,-7.4259E-3,9.845216E-2,3.0070443E-2,2.634635E-1,1.8044854E-2,-1.9947863E-1,-2.789763E-1,-5.5982914E-2,-1.2933154E-1,-1.3513093E-1,-4.4823237E-2,-2.9311916E-2,2.3076801E-1,1.7278428E-1,2.9081532E-1,1.0483346E-1,3.8501418E-1,-2.7832476E-2,8.6788096E-2],"categories":[],"categories_nodes":[],"categories_segments":[],"categories_sizes":[],"default_left":[0,0,0,0,0,0,0,0,0,0,0,0,0,0,0,0,0,0,0,0,0,0,0,0,0,0,0,0,0,0,0,0,0,0,0,0,0,0,0,0,0,0,0,0,0,0,0,0,0,0,0,0,0,0,0,0,0,0,0,0,0,0,0,0,0,0,0,0,0,0,0],"id":15,"left_children":[1,3,5,7,9,11,13,15,17,19,21,-1,23,-1,-1,-1,25,27,29,31,33,35,37,39,41,-1,-1,43,45,47,-1,49,51,53,55,57,59,61,63,65,67,69,-1,-1,-1,-1,-1,-1,-1,-1,-1,-1,-1,-1,-1,-1,-1,-1,-1,-1,-1,-1,-1,-1,-1,-1,-1,-1,-1,-1,-1],"loss_changes":[1.3652445E4,3.7804592E3,1.7714023E3,5.555E2,1.3944924E3,1.0247617E3,1.9874121E2,2.2063428E2,1.0225E2,2.9313336E2,3.055824E2,0E0,8.2746387E2,0E0,0E0,0E0,2.2309692E1,7.013916E1,4.39188E0,9.924499E1,4.057245E2,2.8176819E1,1.5554745E2,2.7018457E2,1.1797013E2,0E0,0E0,4.193286E1,6.7388794E1,1.9701755E-1,0E0,9.438122E0,4.90895E1,6.8407455E1,4.1956543E1,2.1258545E0,5.7154465E-1,5.9034363E1,1.00953094E2,1.12614136E2,1.964563E2,1.8888077E1,0E0,0E0,0E0,0E0,0E0,0E0,0E0,0E0,0E0,0E0,0E0,0E0,0E0,0E0,0E0,0E0,0E0,0E0,0E0,0E0,0E0,0E0,0E0,0E0,0E0,0E0,0E0,0E0,0E0],"parents":[2147483647,0,0,1,1,2,2,3,3,4,4,5,5,6,6,7,7,8,8,9,9,10,10,12,12,16,16,17,17,18,18,19,19,20,20,21,21,22,22,23,23,24,24,27,27,28,28,29,29,31,31,32,32,33,33,34,34,35,35,36,36,37,37,38,38,39,39,40,40,41,41],"right_children":[2,4,6,8,10,12,14,16,18,20,22,-1,24,-1,-1,-1,26,28,30,32,34,36,38,40,42,-1,-1,44,46,48,-1,50,52,54,56,58,60,62,64,66,68,70,-1,-1,-1,-1,-1,-1,-1,-1,-1,-1,-1,-1,-1,-1,-1,-1,-1,-1,-1,-1,-1,-1,-1,-1,-1,-1,-1,-1,-1],"split_conditions":[2.43038E1,1.086025E1,3.91824E1,-2.9488777E1,2.39E2,1.06063E5,1.8E2,1.25148E5,9.382E3,3E0,-4.791485E1,6.7065567E-1,2.43E2,7.344414E-1,4.2049256E-1,-5.029456E-1,-3.76992E-1,7.0295396E0,7.35E-1,1.17716E5,2.415E0,3.04191E1,1.8513927E1,3.0855053E1,2.75814E1,-3.1487504E-1,-1.8247983E-1,8.426E0,7.482E0,1.87404E0,-7.6445915E-2,1.0762799E2,1.32742E1,4.48548E5,5E0,7.7843475E0,4.64352E1,3.42E2,2.5771807E1,3.5391823E1,-3.4810333E1,3.22244E1,-1.7567913E-1,-2.8843662E-1,-2.039491E-1,-2.0547548E-1,-1.1858734E-1,-3.644975E-3,1.3472728E-2,4.796746E-2,1.4351144E-1,-9.288957E-2,-7.4259E-3,9.845216E-2,3.0070443E-2,2.634635E-1,1.8044854E-2,-1.9947863E-1,-2.789763E-1,-5.5982914E-2,-1.2933154E-1,-1.3513093E-1,-4.4823237E-2,-2.9311916E-2,2.3076801E-1,1.7278428E-1,2.9081532E-1,1.0483346E-1,3.8501418E-1,-2.7832476E-2,8.6788096E-2],"split_indices":[13,15,13,19,23,6,23,6,9,3,19,0,23,0,0,0,2,19,0,6,0,17,15,15,0,0,0,14,14,2,0,19,14,5,3,18,0,23,24,19,19,13,0,0,0,0,0,0,0,0,0,0,0,0,0,0,0,0,0,0,0,0,0,0,0,0,0,0,0,0,0],"split_type":[0,0,0,0,0,0,0,0,0,0,0,0,0,0,0,0,0,0,0,0,0,0,0,0,0,0,0,0,0,0,0,0,0,0,0,0,0,0,0,0,0,0,0,0,0,0,0,0,0,0,0,0,0,0,0,0,0,0,0,0,0,0,0,0,0,0,0,0,0,0,0],"sum_hessian":[1.007E3,7.65E2,2.42E2,2.89E2,4.76E2,2.04E2,3.8E1,7.1E1,2.18E2,2.68E2,2.08E2,1.4E1,1.9E2,2.5E1,1.3E1,2.2E1,4.9E1,2.11E2,7E0,8.4E1,1.84E2,4.5E1,1.63E2,1.67E2,2.3E1,4E1,9E0,9.1E1,1.2E2,6E0,1E0,1.3E1,7.1E1,1.5E2,3.4E1,3.8E1,7E0,1.05E2,5.8E1,1E2,6.7E1,1.4E1,9E0,4E1,5.1E1,8.2E1,3.8E1,2E0,4E0,6E0,7E0,2.6E1,4.5E1,6.5E1,8.5E1,3.2E1,2E0,2E1,1.8E1,3E0,4E0,8E1,2.5E1,5.5E1,3E0,6.4E1,3.6E1,8E0,5.9E1,5E0,9E0],"tree_param":{"num_deleted":"0","num_feature":"28","num_nodes":"71","size_leaf_vector":"1"}},{"base_weights":[8.6961515E-2,-1.9027406E0,6.698649E0,-4.2430296E0,2.7790803E-2,5.419765E0,1.3632469E1,-6.151096E0,-3.6881745E0,-3.6446009E0,5.028501E-1,3.8019166E0,6.4432597E0,7.900191E-1,5.2037996E-1,-7.8366976E0,-5.5325885E0,-4.3546104E0,-3.2484303E0,-2.8041133E-1,-2.5820973E0,-1.0075165E0,1.1028352E0,3.1275752E0,6.9330406E0,3.7061813E0,7.90709E0,-1.6673015E-1,-4.0955234E-1,-2.9202422E-1,-3.993843E0,-2.2628005E0,-4.553071E0,-3.3463864E0,-5.4537106E-1,-1.8349339E-1,-1.3424389E0,-1.5664846E0,1.634415E0,5.1636815E-1,2.224982E0,4.1511753E-1,3.6045299E0,2.0377536E-1,4.1047803E-1,1.7330029E0,4.251599E0,7.274018E0,5.6789833E-1,-2.0644219E-1,-5.934582E-2,-3.8184706E-2,-1.2555401E-1,-2.500391E-1,-1.9261764E-1,-1.8732905E-1,-1.343777E-1,6.837114E-2,-7.919866E-2,-1.4267935E-2,-9.465432E-2,-2.1311255E-1,-5.2119423E-2,1.4728077E-2,1.7199467E-1,2.9708429E-3,7.878595E-2,7.5424634E-2,2.5234696E-1,-6.579035E-2,4.7298413E-2,2.5245849E-2,1.9492565E-1,2.2126548E-2,1.3673206E-1,6.195655E-2,2.1535079E-1,3.29303E-1,4.4550046E-1],"categories":[],"categories_nodes":[],"categories_segments":[],"categories_sizes":[],"default_left":[0,0,0,0,0,0,0,0,0,0,0,0,0,0,0,0,0,0,0,0,0,0,0,0,0,0,0,0,0,0,0,0,0,0,0,0,0,0,0,0,0,0,0,0,0,0,0,0,0,0,0,0,0,0,0,0,0,0,0,0,0,0,0,0,0,0,0,0,0,0,0,0,0,0,0,0,0,0,0],"id":16,"left_children":[1,3,5,7,9,11,13,15,17,19,21,23,25,-1,-1,27,29,31,33,-1,35,37,39,41,43,45,47,-1,-1,-1,49,51,53,55,57,-1,59,61,63,65,67,69,71,-1,-1,73,75,77,-1,-1,-1,-1,-1,-1,-1,-1,-1,-1,-1,-1,-1,-1,-1,-1,-1,-1,-1,-1,-1,-1,-1,-1,-1,-1,-1,-1,-1,-1,-1],"loss_changes":[1.3023325E4,3.438317E3,1.9567852E3,3.4150684E2,7.3107715E2,2.983955E2,8.024951E1,3.5876953E1,6.4687744E1,8.5664185E1,3.373104E2,1.4300916E2,4.4347656E2,0E0,0E0,1.4018555E0,4.626587E0,3.287195E1,4.2128662E1,0E0,3.957274E1,1.5909633E2,1.7390622E2,8.388916E1,1.3961975E1,3.8908813E1,8.341553E1,0E0,0E0,0E0,2.5604248E-2,2.1764793E0,1.02248535E1,3.21167E1,1.6072382E1,0E0,9.355129E0,1.1988704E2,4.4949192E1,8.5103E1,1.7637985E2,1.13522E1,4.906073E1,0E0,0E0,1.30082855E1,1.7211914E-1,1.6726074E1,0E0,0E0,0E0,0E0,0E0,0E0,0E0,0E0,0E0,0E0,0E0,0E0,0E0,0E0,0E0,0E0,0E0,0E0,0E0,0E0,0E0,0E0,0E0,0E0,0E0,0E0,0E0,0E0,0E0,0E0,0E0],"parents":[2147483647,0,0,1,1,2,2,3,3,4,4,5,5,6,6,7,7,8,8,9,9,10,10,11,11,12,12,15,15,16,16,17,17,18,18,20,20,21,21,22,22,23,23,24,24,25,25,26,26,30,30,31,31,32,32,33,33,34,34,36,36,37,37,38,38,39,39,40,40,41,41,42,42,45,45,46,46,47,47],"right_children":[2,4,6,8,10,12,14,16,18,20,22,24,26,-1,-1,28,30,32,34,-1,36,38,40,42,44,46,48,-1,-1,-1,50,52,54,56,58,-1,60,62,64,66,68,70,72,-1,-1,74,76,78,-1,-1,-1,-1,-1,-1,-1,-1,-1,-1,-1,-1,-1,-1,-1,-1,-1,-1,-1,-1,-1,-1,-1,-1,-1,-1,-1,-1,-1,-1,-1],"split_conditions":[2.50152E1,1.16592E1,4.20804E1,5.9378E0,-3.6040375E1,-1.615451E0,3.357101E1,-7.8172935E1,8.4906E0,-7.132207E1,1.58546E1,4.4333595E1,2.212321E1,7.900191E-1,5.2037996E-1,1.04202E1,1.903369E1,-4.46E3,1.4665902E1,-2.8041133E-1,1.9441143E1,5.447184E1,2.02095E1,-4.4176483E1,-3.9901222E1,2.185179E1,1.80306E1,-1.6673015E-1,-4.0955234E-1,-2.9202422E-1,5.642E0,6.934067E0,5.1222787E0,2.1148643E1,3.58176E1,-1.8349339E-1,-2.852E3,1.0669507E1,1.12694E1,2.08724E1,1.7996E1,-5.326973E1,2.74848E1,2.0377536E-1,4.1047803E-1,2.005131E1,-3.5742E0,3.22244E1,5.6789833E-1,-2.0644219E-1,-5.934582E-2,-3.8184706E-2,-1.2555401E-1,-2.500391E-1,-1.9261764E-1,-1.8732905E-1,-1.343777E-1,6.837114E-2,-7.919866E-2,-1.4267935E-2,-9.465432E-2,-2.1311255E-1,-5.2119423E-2,1.4728077E-2,1.7199467E-1,2.9708429E-3,7.878595E-2,7.5424634E-2,2.5234696E-1,-6.579035E-2,4.7298413E-2,2.5245849E-2,1.9492565E-1,2.2126548E-2,1.3673206E-1,6.195655E-2,2.1535079E-1,3.29303E-1,4.4550046E-1],"split_indices":[12,12,12,12,19,19,17,19,12,19,12,15,15,0,0,0,19,10,18,0,15,19,19,19,19,19,0,0,0,0,14,15,19,19,0,0,11,15,14,12,14,19,14,0,0,15,0,14,0,0,0,0,0,0,0,0,0,0,0,0,0,0,0,0,0,0,0,0,0,0,0,0,0,0,0,0,0,0,0],"split_type":[0,0,0,0,0,0,0,0,0,0,0,0,0,0,0,0,0,0,0,0,0,0,0,0,0,0,0,0,0,0,0,0,0,0,0,0,0,0,0,0,0,0,0,0,0,0,0,0,0,0,0,0,0,0,0,0,0,0,0,0,0,0,0,0,0,0,0,0,0,0,0,0,0,0,0,0,0,0,0],"sum_hessian":[9.88E2,7.6E2,2.28E2,3.43E2,4.17E2,1.94E2,3.4E1,7.5E1,2.68E2,4.7E1,3.7E2,7.7E1,1.17E2,1.8E1,1.6E1,1.7E1,5.8E1,1.03E2,1.65E2,1.5E1,3.2E1,1.05E2,2.65E2,6.5E1,1.2E1,4.2E1,7.5E1,2E0,1.5E1,4.6E1,1.2E1,1E1,9.3E1,1.59E2,6E0,1.6E1,1.6E1,8.7E1,1.8E1,1.75E2,9E1,1E1,5.5E1,5E0,7E0,1E1,3.2E1,6.6E1,9E0,1.1E1,1E0,2E0,8E0,5.3E1,4E1,9.6E1,6.3E1,2E0,4E0,6E0,1E1,1.3E1,7.4E1,1.1E1,7E0,1.23E2,5.2E1,7.3E1,1.7E1,2E0,8E0,5E0,5E1,5E0,5E0,1E0,3.1E1,5E1,1.6E1],"tree_param":{"num_deleted":"0","num_feature":"28","num_nodes":"79","size_leaf_vector":"1"}},{"base_weights":[7.139182E-3,-1.9507853E0,6.123601E0,-3.5688245E0,4.4034702E-1,4.816804E0,1.2802138E1,-5.0776877E0,-2.6465707E0,-9.078838E-1,1.2016393E0,5.3302193E0,1.0968766E0,9.155835E0,1.5203562E1,-8.155643E0,-4.7491813E0,-2.1524243E0,-4.1407843E0,-1.6276367E0,2.2509526E-1,7.4613035E-2,2.0462427E0,3.3741708E0,6.389462E0,-6.5216415E-2,3.719738E0,1.0668035E-1,4.7217008E-1,8.1240654E-1,4.201203E-1,-1.0194408E-1,-4.4699237E-1,-5.2902994E0,-3.7952206E0,-2.8214912E0,-1.217076E0,-3.9000556E-1,-3.6684656E0,-1.8277385E0,1.0154631E-1,-1.274944E0,8.2745194E-1,-6.6331506E-1,1.0047692E0,2.839416E-1,1.5118741E0,4.487425E0,2.6576881E0,3.1611202E0,6.769926E0,-1.2977945E0,7.6193696E-1,2.2329505E-1,4.9374994E-2,-2.6992092E-1,-1.1106193E-1,-3.691187E-2,-1.9439529E-1,-1.6019629E-1,-5.4725874E-2,-9.210425E-2,4.7700282E-2,-1.8620123E-1,-5.5950168E-3,-5.8002003E-2,-1.362249E-1,7.2999E-4,-6.918113E-2,6.759074E-2,2.8356416E-3,-5.5886973E-2,1.5769614E-2,-3.0318329E-3,1.0959611E-1,-4.1007772E-2,1.0379916E-1,6.522522E-2,2.2845475E-1,7.560844E-2,1.6522315E-1,1.6722827E-1,1.940837E-2,2.466961E-1,3.8483134E-1,-9.801057E-2,-7.2662355E-3,1.8068334E-2,7.363679E-2],"categories":[],"categories_nodes":[],"categories_segments":[],"categories_sizes":[],"default_left":[0,0,0,0,0,0,0,0,0,0,0,0,0,0,0,0,0,0,0,0,0,0,0,0,0,0,0,0,0,0,0,0,0,0,0,0,0,0,0,0,0,0,0,0,0,0,0,0,0,0,0,0,0,0,0,0,0,0,0,0,0,0,0,0,0,0,0,0,0,0,0,0,0,0,0,0,0,0,0,0,0,0,0,0,0,0,0,0,0],"id":17,"left_children":[1,3,5,7,9,11,13,15,17,19,21,23,25,27,29,31,33,35,37,39,41,43,45,47,49,51,53,-1,-1,-1,-1,-1,-1,55,57,59,61,-1,63,65,-1,67,69,71,73,-1,75,77,79,81,83,85,87,-1,-1,-1,-1,-1,-1,-1,-1,-1,-1,-1,-1,-1,-1,-1,-1,-1,-1,-1,-1,-1,-1,-1,-1,-1,-1,-1,-1,-1,-1,-1,-1,-1,-1,-1,-1],"loss_changes":[1.195159E4,2.9264941E3,2.0503867E3,6.1415283E2,3.1516864E2,3.837661E2,2.0229541E2,1.3315967E2,1.9930481E2,9.088299E1,1.8641782E2,3.493164E2,7.9490814E1,1.619983E1,1.9770508E1,5.3724487E1,6.0450195E1,1.3048944E2,9.0642944E1,5.3493774E1,4.0811535E1,5.900949E1,2.088222E2,3.9919556E1,1.198501E2,2.0359928E1,1.1899483E1,0E0,0E0,0E0,0E0,0E0,0E0,2.0195312E1,1.4130005E1,7.838953E1,1.25239426E2,0E0,1.2031982E1,3.5759186E1,0E0,1.8420982E0,1.2856039E1,2.1700449E1,4.8195297E1,0E0,1.31939E2,2.7841187E-1,2.6120636E1,5.8233185E0,1.3557129E2,5.8224554E0,2.8845015E0,0E0,0E0,0E0,0E0,0E0,0E0,0E0,0E0,0E0,0E0,0E0,0E0,0E0,0E0,0E0,0E0,0E0,0E0,0E0,0E0,0E0,0E0,0E0,0E0,0E0,0E0,0E0,0E0,0E0,0E0,0E0,0E0,0E0,0E0,0E0,0E0],"parents":[2147483647,0,0,1,1,2,2,3,3,4,4,5,5,6,6,7,7,8,8,9,9,10,10,11,11,12,12,13,13,14,14,15,15,16,16,17,17,18,18,19,19,20,20,21,21,22,22,23,23,24,24,25,25,26,26,33,33,34,34,35,35,36,36,38,38,39,39,41,41,42,42,43,43,44,44,46,46,47,47,48,48,49,49,50,50,51,51,52,52],"right_children":[2,4,6,8,10,12,14,16,18,20,22,24,26,28,30,32,34,36,38,40,42,44,46,48,50,52,54,-1,-1,-1,-1,-1,-1,56,58,60,62,-1,64,66,-1,68,70,72,74,-1,76,78,80,82,84,86,88,-1,-1,-1,-1,-1,-1,-1,-1,-1,-1,-1,-1,-1,-1,-1,-1,-1,-1,-1,-1,-1,-1,-1,-1,-1,-1,-1,-1,-1,-1,-1,-1,-1,-1,-1,-1],"split_conditions":[2.40624E1,1.49536E1,3.91824E1,8.4396E0,-6.5259767E0,2.31E2,2.959653E1,-8.472008E1,-2.82324E0,4.40773E5,1.6944233E1,2.80184E1,7.25E2,-2.6712E0,-7.07E2,-6.426E-1,-1.2555664E1,8.131795E0,-1.1906328E1,3.22244E1,1.8513605E1,2.5854305E1,5E0,-3.158E3,2.0437014E1,-5.3768085E1,1.49814E1,1.0668035E-1,4.7217008E-1,8.1240654E-1,4.201203E-1,-1.0194408E-1,-4.4699237E-1,1.2196357E1,-4.978E3,-9.924096E0,1.23902E1,-3.9000556E-1,2.6630496E2,-9E0,1.0154631E-1,1.71718E1,-4.04796E0,2.6298529E1,1.4799203E1,2.839416E-1,-2.53752E1,-7.3878E0,-9.31728E-1,9.7776E0,2.539913E-1,-6.093024E0,-1.172E3,2.2329505E-1,4.9374994E-2,-2.6992092E-1,-1.1106193E-1,-3.691187E-2,-1.9439529E-1,-1.6019629E-1,-5.4725874E-2,-9.210425E-2,4.7700282E-2,-1.8620123E-1,-5.5950168E-3,-5.8002003E-2,-1.362249E-1,7.2999E-4,-6.918113E-2,6.759074E-2,2.8356416E-3,-5.5886973E-2,1.5769614E-2,-3.0318329E-3,1.0959611E-1,-4.1007772E-2,1.0379916E-1,6.522522E-2,2.2845475E-1,7.560844E-2,1.6522315E-1,1.6722827E-1,1.940837E-2,2.466961E-1,3.8483134E-1,-9.801057E-2,-7.2662355E-3,1.8068334E-2,7.363679E-2],"split_indices":[12,12,12,12,19,23,19,20,1,5,15,12,11,0,10,0,20,19,2,13,17,19,3,10,15,20,0,0,0,0,0,0,0,18,10,2,14,0,19,11,0,12,1,20,15,0,20,0,2,0,19,1,10,0,0,0,0,0,0,0,0,0,0,0,0,0,0,0,0,0,0,0,0,0,0,0,0,0,0,0,0,0,0,0,0,0,0,0,0],"split_type":[0,0,0,0,0,0,0,0,0,0,0,0,0,0,0,0,0,0,0,0,0,0,0,0,0,0,0,0,0,0,0,0,0,0,0,0,0,0,0,0,0,0,0,0,0,0,0,0,0,0,0,0,0,0,0,0,0,0,0,0,0,0,0,0,0,0,0,0,0,0,0,0,0,0,0,0,0,0,0,0,0,0,0,0,0,0,0,0,0],"sum_hessian":[9.96E2,7.55E2,2.41E2,4.5E2,3.05E2,2.03E2,3.8E1,1.69E2,2.81E2,1.1E2,1.95E2,1.78E2,2.5E1,1.7E1,2.1E1,1.4E1,1.55E2,2.13E2,6.8E1,6.7E1,4.3E1,8.4E1,1.11E2,6.4E1,1.14E2,1.8E1,7E0,1E0,1.6E1,1.7E1,4E0,2E0,1.2E1,9.6E1,5.9E1,1.23E2,9E1,6E0,6.2E1,6.4E1,3E0,1.2E1,3.1E1,4.7E1,3.7E1,1.3E1,9.8E1,2.3E1,4.1E1,1.3E1,1.01E2,7E0,1.1E1,5E0,2E0,9.2E1,4E0,2E0,5.7E1,1E2,2.3E1,7E1,2E1,6.1E1,1E0,3.8E1,2.6E1,1E0,1.1E1,1.8E1,1.3E1,3.2E1,1.5E1,2E1,1.7E1,1.9E1,7.9E1,1E0,2.2E1,1.6E1,2.5E1,1.2E1,1E0,3.6E1,6.5E1,4E0,3E0,8E0,3E0],"tree_param":{"num_deleted":"0","num_feature":"28","num_nodes":"89","size_leaf_vector":"1"}},{"base_weights":[9.6562766E-2,-1.7127717E0,6.5266E0,-3.6258907E0,4.3061554E-1,5.256112E0,1.2007141E1,-4.835089E0,-2.6961358E0,-1.8763754E0,8.876759E-1,1.447295E0,5.6912055E0,8.507944E0,6.84934E-1,-8.512169E0,-4.5217733E0,-3.2824335E0,-1.6408093E0,-2.2260678E0,2.5553308E0,-9.7176984E-2,1.5553567E0,5.8375273E-2,2.830377E0,4.0458016E0,6.53783E0,4.387075E-1,1.128716E-1,-4.7698885E-1,-9.534415E-2,-5.073891E0,-3.568819E0,-4.4963236E0,-2.5871556E0,-2.5566454E0,2.7902284E-1,2.4752753E-2,-2.4862537E0,3.444783E-2,1.784964E-1,-6.264257E-1,1.7129196E0,6.659688E-1,3.0196857E0,-3.8734388E-1,4.6760987E-2,1.6723688E-1,6.11326E-2,3.366503E0,5.9402766E0,5.155175E0,7.6802864E0,-2.2424169E-1,-2.7780503E-1,-1.9416887E-1,-1.1813866E-1,-2.7279773E-1,-1.8330394E-1,-1.43873E-1,-4.5068026E-2,-4.905207E-2,-1.3749398E-1,-1.9587968E-2,1.2215805E-1,1.6379243E-2,-2.4410916E-2,-1.7044258E-1,-9.9075995E-2,-7.212438E-2,1.3534591E-2,1.6048917E-1,2.3374956E-2,4.400943E-2,-6.409019E-2,2.8158617E-1,1.1330549E-1,-4.6793938E-2,6.4476393E-3,7.6408036E-2,1.8613403E-1,3.170583E-1,1.1783139E-1,3.017916E-1,1.5194067E-1,4.678999E-1,3.319659E-1],"categories":[],"categories_nodes":[],"categories_segments":[],"categories_sizes":[],"default_left":[0,0,0,0,0,0,0,0,0,0,0,0,0,0,0,0,0,0,0,0,0,0,0,0,0,0,0,0,0,0,0,0,0,0,0,0,0,0,0,0,0,0,0,0,0,0,0,0,0,0,0,0,0,0,0,0,0,0,0,0,0,0,0,0,0,0,0,0,0,0,0,0,0,0,0,0,0,0,0,0,0,0,0,0,0,0,0],"id":18,"left_children":[1,3,5,7,9,11,13,15,17,19,21,23,25,27,-1,29,31,33,35,37,39,41,43,45,47,49,51,-1,-1,-1,-1,53,55,57,59,61,63,65,67,-1,-1,69,71,73,75,77,-1,-1,-1,79,81,83,85,-1,-1,-1,-1,-1,-1,-1,-1,-1,-1,-1,-1,-1,-1,-1,-1,-1,-1,-1,-1,-1,-1,-1,-1,-1,-1,-1,-1,-1,-1,-1,-1,-1,-1],"loss_changes":[1.1761606E4,3.2368992E3,1.482667E3,4.557798E2,3.9496954E2,2.9337158E2,1.2613281E2,1.6888574E2,1.4187317E2,1.01771835E2,2.0531216E2,3.825457E1,2.0061475E2,6.815674E0,0E0,7.004816E1,7.0283936E1,1.1665405E2,1.5368124E2,3.402823E1,7.008564E0,1.227379E2,2.4022733E2,4.661342E0,4.1800537E0,5.4643127E1,1.2784668E2,0E0,0E0,0E0,0E0,4.623047E0,1.5483643E1,2.3021362E1,4.5856323E1,1.5265442E1,4.3055428E1,1.2473416E0,1.745993E1,0E0,0E0,7.28687E1,5.2561943E1,4.994666E1,1.2502368E2,2.3863382E0,0E0,0E0,0E0,2.3776031E1,5.169281E0,7.67113E1,3.5670166E1,0E0,0E0,0E0,0E0,0E0,0E0,0E0,0E0,0E0,0E0,0E0,0E0,0E0,0E0,0E0,0E0,0E0,0E0,0E0,0E0,0E0,0E0,0E0,0E0,0E0,0E0,0E0,0E0,0E0,0E0,0E0,0E0,0E0,0E0],"parents":[2147483647,0,0,1,1,2,2,3,3,4,4,5,5,6,6,7,7,8,8,9,9,10,10,11,11,12,12,13,13,15,15,16,16,17,17,18,18,19,19,20,20,21,21,22,22,23,23,24,24,25,25,26,26,31,31,32,32,33,33,34,34,35,35,36,36,37,37,38,38,41,41,42,42,43,43,44,44,45,45,49,49,50,50,51,51,52,52],"right_children":[2,4,6,8,10,12,14,16,18,20,22,24,26,28,-1,30,32,34,36,38,40,42,44,46,48,50,52,-1,-1,-1,-1,54,56,58,60,62,64,66,68,-1,-1,70,72,74,76,78,-1,-1,-1,80,82,84,86,-1,-1,-1,-1,-1,-1,-1,-1,-1,-1,-1,-1,-1,-1,-1,-1,-1,-1,-1,-1,-1,-1,-1,-1,-1,-1,-1,-1,-1,-1,-1,-1,-1,-1],"split_conditions":[2.5383E1,1.3953E1,3.91824E1,8.4906E0,-2.4608639E1,-3.5559177E1,7.6801575E1,-9.454902E1,2.1148643E1,3.22244E1,1.710648E1,3.872105E1,2.0831892E1,-6.353424E0,6.84934E-1,-1.3853952E1,-1.2555664E1,8.74E1,8.655E0,1.67E2,4.18542E5,7.340378E1,8.742622E0,-4.4458744E1,4.65696E1,2.6232244E1,5.1222787E0,4.387075E-1,1.128716E-1,-4.7698885E-1,-9.534415E-2,8.78E2,7.501353E1,-3.426861E1,1.9233929E1,-3.913E3,1.12694E1,-3.961104E0,2.56E2,3.444783E-2,1.784964E-1,2.2690636E1,4.49664E5,1.1E1,1.90474E1,-6.093024E0,4.6760987E-2,1.6723688E-1,6.11326E-2,6.8602425E1,-2.702616E0,4.58845E5,2.3670097E1,-2.2424169E-1,-2.7780503E-1,-1.9416887E-1,-1.1813866E-1,-2.7279773E-1,-1.8330394E-1,-1.43873E-1,-4.5068026E-2,-4.905207E-2,-1.3749398E-1,-1.9587968E-2,1.2215805E-1,1.6379243E-2,-2.4410916E-2,-1.7044258E-1,-9.9075995E-2,-7.212438E-2,1.3534591E-2,1.6048917E-1,2.3374956E-2,4.400943E-2,-6.409019E-2,2.8158617E-1,1.1330549E-1,-4.6793938E-2,6.4476393E-3,7.6408036E-2,1.8613403E-1,3.170583E-1,1.1783139E-1,3.017916E-1,1.5194067E-1,4.678999E-1,3.319659E-1],"split_indices":[12,12,12,12,19,20,20,20,19,13,15,15,17,1,0,2,20,8,14,23,5,19,20,20,14,24,19,0,0,0,0,10,20,19,17,11,14,1,23,0,0,20,5,21,12,1,0,0,0,20,2,5,24,0,0,0,0,0,0,0,0,0,0,0,0,0,0,0,0,0,0,0,0,0,0,0,0,0,0,0,0,0,0,0,0,0,0],"split_type":[0,0,0,0,0,0,0,0,0,0,0,0,0,0,0,0,0,0,0,0,0,0,0,0,0,0,0,0,0,0,0,0,0,0,0,0,0,0,0,0,0,0,0,0,0,0,0,0,0,0,0,0,0,0,0,0,0,0,0,0,0,0,0,0,0,0,0,0,0,0,0,0,0,0,0,0,0,0,0,0,0,0,0,0,0,0,0],"sum_hessian":[1.009E3,7.88E2,2.21E2,4.16E2,3.72E2,1.81E2,4E1,1.79E2,2.37E2,6.1E1,3.11E2,1.9E1,1.62E2,1.5E1,2.5E1,1.2E1,1.67E2,1.51E2,8.6E1,5.7E1,4E0,1.26E2,1.85E2,1E1,9E0,5.7E1,1.05E2,1.4E1,1E0,1E1,2E0,1.03E2,6.4E1,5.3E1,9.8E1,5.8E1,2.8E1,6E0,5.1E1,2E0,2E0,9.8E1,2.8E1,1.16E2,6.9E1,7E0,3E0,6E0,3E0,4.4E1,1.3E1,5E1,5.5E1,5.1E1,5.2E1,4.9E1,1.5E1,2.2E1,3.1E1,8.3E1,1.5E1,7E0,5.1E1,2.2E1,6E0,4E0,2E0,1.6E1,3.5E1,5.1E1,4.7E1,1.2E1,1.6E1,1.05E2,1.1E1,1.4E1,5.5E1,3E0,4E0,8E0,3.6E1,1.1E1,2E0,3.4E1,1.6E1,1.8E1,3.7E1],"tree_param":{"num_deleted":"0","num_feature":"28","num_nodes":"87","size_leaf_vector":"1"}},{"base_weights":[-3.9194837E-2,-1.777664E0,5.4339247E0,-3.7091095E0,-5.1665053E-2,4.420088E0,1.1332723E1,-5.5759177E0,-3.2408879E0,-1.6163656E0,6.526347E-1,3.3430564E0,5.629206E0,8.348355E0,6.576791E-1,-4.4363412E-1,-5.016444E0,-3.8674045E0,-2.772206E0,-3.7693336E0,-1.0461324E0,-2.5866902E-1,1.6474781E0,-4.035812E-1,3.6323583E0,2.7583165E0,6.2931623E0,4.3057227E-1,1.1004982E-1,-5.404878E0,-3.5376155E0,-2.881447E0,-4.27913E0,-3.2168138E0,-1.9458442E0,-2.3697345E-1,-2.7419364E0,-2.0125742E0,9.1751945E-1,-1.5496325E0,2.89995E-1,4.78986E0,1.1808004E0,1.5251282E-1,-7.8330345E-2,3.104712E0,5.7196193E0,1.247163E0,3.476079E0,6.476083E0,1.1636553E-1,-2.7291307E-1,-7.239697E-2,-1.9052564E-1,-8.831483E-2,-1.5292342E-1,-2.8394653E-2,-2.274175E-1,-1.519652E-1,-1.7518593E-1,-1.02735214E-1,-1.1624791E-1,-4.0277265E-2,-1.6143496E-1,-5.6133576E-2,-1.8558471E-1,-8.097782E-2,2.9653115E-2,1.6013412E-1,-1.3866338E-1,-2.0719191E-2,-3.1191481E-2,7.0576176E-2,2.5148392E-3,2.5414693E-1,-5.5758167E-2,7.629954E-2,3.01824E-2,-3.251084E-2,7.174632E-2,2.0338209E-1,6.939151E-2,3.0619138E-1,-3.4885406E-3,7.226319E-2,1.8061332E-1,4.604578E-2,3.3586493E-1,1.8231946E-1],"categories":[],"categories_nodes":[],"categories_segments":[],"categories_sizes":[],"default_left":[0,0,0,0,0,0,0,0,0,0,0,0,0,0,0,0,0,0,0,0,0,0,0,0,0,0,0,0,0,0,0,0,0,0,0,0,0,0,0,0,0,0,0,0,0,0,0,0,0,0,0,0,0,0,0,0,0,0,0,0,0,0,0,0,0,0,0,0,0,0,0,0,0,0,0,0,0,0,0,0,0,0,0,0,0,0,0,0,0],"id":19,"left_children":[1,3,5,7,9,11,13,15,17,19,21,23,25,27,-1,-1,29,31,33,35,37,39,41,43,45,47,49,-1,-1,51,53,55,57,59,61,-1,63,65,67,69,71,73,75,77,-1,79,81,83,85,87,-1,-1,-1,-1,-1,-1,-1,-1,-1,-1,-1,-1,-1,-1,-1,-1,-1,-1,-1,-1,-1,-1,-1,-1,-1,-1,-1,-1,-1,-1,-1,-1,-1,-1,-1,-1,-1,-1,-1],"loss_changes":[9.591112E3,2.5500686E3,1.4031504E3,2.974712E2,4.4737222E2,2.5335303E2,8.03833E1,8.644678E1,7.472705E1,1.5074619E2,2.5427542E2,1.23947754E2,1.6753784E2,6.923218E0,0E0,0E0,1.7068604E1,3.719507E1,5.619983E1,1.29192505E1,1.935198E2,1.0457026E2,1.9085233E2,6.059692E0,9.788245E1,1.7357758E1,4.151172E1,0E0,0E0,2.235962E0,1.0037079E0,1.4235504E1,1.4214111E1,2.9143066E1,2.4929947E1,0E0,8.198196E0,3.939807E1,2.3309484E1,5.997252E1,1.074681E2,2.335849E1,9.5222E1,2.927479E0,0E0,1.3244147E2,2.652002E1,2.1879215E0,1.1971436E0,2.6016113E1,0E0,0E0,0E0,0E0,0E0,0E0,0E0,0E0,0E0,0E0,0E0,0E0,0E0,0E0,0E0,0E0,0E0,0E0,0E0,0E0,0E0,0E0,0E0,0E0,0E0,0E0,0E0,0E0,0E0,0E0,0E0,0E0,0E0,0E0,0E0,0E0,0E0,0E0,0E0],"parents":[2147483647,0,0,1,1,2,2,3,3,4,4,5,5,6,6,7,7,8,8,9,9,10,10,11,11,12,12,13,13,16,16,17,17,18,18,19,19,20,20,21,21,22,22,23,23,24,24,25,25,26,26,29,29,30,30,31,31,32,32,33,33,34,34,36,36,37,37,38,38,39,39,40,40,41,41,42,42,43,43,45,45,46,46,47,47,48,48,49,49],"right_children":[2,4,6,8,10,12,14,16,18,20,22,24,26,28,-1,-1,30,32,34,36,38,40,42,44,46,48,50,-1,-1,52,54,56,58,60,62,-1,64,66,68,70,72,74,76,78,-1,80,82,84,86,88,-1,-1,-1,-1,-1,-1,-1,-1,-1,-1,-1,-1,-1,-1,-1,-1,-1,-1,-1,-1,-1,-1,-1,-1,-1,-1,-1,-1,-1,-1,-1,-1,-1,-1,-1,-1,-1,-1,-1],"split_conditions":[2.40624E1,1.1484E1,3.91824E1,5.79E0,-1.4346082E1,3.02738E1,9.0056595E1,-1.4638823E2,-7.6594667E0,-5.6107082E1,1.6944233E1,2.1567E5,-9.101233E0,1.13839E5,6.576791E-1,-4.4363412E-1,-2.3001907E1,2.21809E5,8.4906E0,-7.132207E1,2.0960854E1,1.269224E1,5E0,2.58902E1,2.8549763E1,-4.7283184E1,2.6741116E1,4.3057227E-1,1.1004982E-1,2.54268E1,8.75E1,2.80184E1,-1.099728E0,9.609143E0,2.5006748E1,-2.3697345E-1,1.70464E1,1.30762E1,3.1771667E1,4.4158268E1,1.9907736E1,-1.281345E1,-3.1173841E1,4.64352E1,-7.8330345E-2,5.6127956E1,-3.937703E1,3.91824E1,1.18194E5,2.698E3,1.1636553E-1,-2.7291307E-1,-7.239697E-2,-1.9052564E-1,-8.831483E-2,-1.5292342E-1,-2.8394653E-2,-2.274175E-1,-1.519652E-1,-1.7518593E-1,-1.02735214E-1,-1.1624791E-1,-4.0277265E-2,-1.6143496E-1,-5.6133576E-2,-1.8558471E-1,-8.097782E-2,2.9653115E-2,1.6013412E-1,-1.3866338E-1,-2.0719191E-2,-3.1191481E-2,7.0576176E-2,2.5148392E-3,2.5414693E-1,-5.5758167E-2,7.629954E-2,3.01824E-2,-3.251084E-2,7.174632E-2,2.0338209E-1,6.939151E-2,3.0619138E-1,-3.4885406E-3,7.226319E-2,1.8061332E-1,4.604578E-2,3.3586493E-1,1.8231946E-1],"split_indices":[12,12,12,12,19,12,20,20,19,19,15,7,20,6,0,0,20,7,14,19,15,15,21,13,15,19,24,0,0,0,8,14,2,24,19,0,12,13,15,20,19,19,20,0,0,20,19,14,6,11,0,0,0,0,0,0,0,0,0,0,0,0,0,0,0,0,0,0,0,0,0,0,0,0,0,0,0,0,0,0,0,0,0,0,0,0,0,0,0],"split_type":[0,0,0,0,0,0,0,0,0,0,0,0,0,0,0,0,0,0,0,0,0,0,0,0,0,0,0,0,0,0,0,0,0,0,0,0,0,0,0,0,0,0,0,0,0,0,0,0,0,0,0,0,0,0,0,0,0,0,0,0,0,0,0,0,0,0,0,0,0,0,0,0,0,0,0,0,0,0,0,0,0,0,0,0,0,0,0,0,0],"sum_hessian":[1.006E3,7.64E2,2.42E2,3.6E2,4.04E2,2.08E2,3.4E1,7E1,2.9E2,1.25E2,2.79E2,1.12E2,9.6E1,1.5E1,1.9E1,8E0,6.2E1,1.21E2,1.69E2,2.5E1,1E2,1.46E2,1.33E2,8E0,1.04E2,1.9E1,7.7E1,1.4E1,1E0,4.7E1,1.5E1,3.8E1,8.3E1,1.08E2,6.1E1,1.1E1,1.4E1,6.7E1,3.3E1,4.3E1,1.03E2,1.6E1,1.17E2,6E0,2E0,8.5E1,1.9E1,7E0,1.2E1,7.3E1,4E0,4.6E1,1E0,1.2E1,3E0,3.5E1,3E0,6.6E1,1.7E1,8.5E1,2.3E1,4.5E1,1.6E1,1E1,4E0,1.1E1,5.6E1,3E1,3E0,2E1,2.3E1,5.7E1,4.6E1,1E0,1.5E1,1.5E1,1.02E2,4E0,2E0,3.2E1,5.3E1,2E0,1.7E1,1E0,6E0,1.1E1,1E0,6.6E1,7E0],"tree_param":{"num_deleted":"0","num_feature":"28","num_nodes":"89","size_leaf_vector":"1"}},{"base_weights":[1.2762781E-2,-1.8544854E0,4.804025E0,-3.5336707E0,-2.1513319E-1,3.9354808E0,1.1176815E1,-4.9527206E0,-2.9259531E0,-1.770009E0,5.056659E-1,4.289775E0,-2.1664129E-1,4.4535398E-1,7.0790756E-1,-8.204398E0,-4.4993925E0,-3.6077423E0,-2.4643705E0,-3.543335E0,-1.132446E0,-6.336661E-1,9.875604E-1,2.9802496E0,5.37992E0,-1.2188258E0,1.0076443E0,-9.192064E-2,-4.307998E-1,-2.4680524E-1,-3.691442E0,-2.582445E0,-4.1516433E0,-2.835967E0,-1.5343372E0,-3.7597237E0,-5.7139006E-2,-4.281809E0,-7.246201E-1,-1.0331239E0,1.0863007E0,-1.0958372E0,1.2102042E0,3.2597487E0,6.6550636E-1,1.4442261E0,5.740682E0,-1.6205388E0,-3.501912E-2,1.2780814E0,-4.9402874E-2,-1.9397852E-1,-8.369404E-2,-1.4334702E-1,-2.9365603E-2,-2.6123464E-1,-1.7974234E-1,-1.5625323E-1,-1.0122996E-1,-1.1325412E-1,-5.013324E-2,-2.3217583E-2,-1.9322883E-1,-2.2377439E-1,-6.346746E-2,-6.744865E-2,1.8046698E-2,2.0918844E-2,-7.094408E-2,-2.4572734E-2,1.4798288E-1,-6.440394E-2,1.4736493E-2,4.475772E-2,2.0342343E-1,1.3914175E-1,2.1410346E-1,4.8891418E-2,-1.4887238E-3,1.0000054E-1,-8.3673E-3,2.6116627E-1,4.7189742E-1,-8.905529E-2,-2.0442605E-2,6.7789815E-2,1.8351937E-2,-3.4013272E-3,-3.0388832E-4],"categories":[],"categories_nodes":[],"categories_segments":[],"categories_sizes":[],"default_left":[0,0,0,0,0,0,0,0,0,0,0,0,0,0,0,0,0,0,0,0,0,0,0,0,0,0,0,0,0,0,0,0,0,0,0,0,0,0,0,0,0,0,0,0,0,0,0,0,0,0,0,0,0,0,0,0,0,0,0,0,0,0,0,0,0,0,0,0,0,0,0,0,0,0,0,0,0,0,0,0,0,0,0,0,0,0,0,0,0],"id":20,"left_children":[1,3,5,7,9,11,13,15,17,19,21,23,25,-1,-1,27,29,31,33,35,37,39,41,43,45,47,49,-1,-1,-1,51,53,55,57,59,61,-1,63,65,67,69,71,73,75,77,79,81,83,-1,85,87,-1,-1,-1,-1,-1,-1,-1,-1,-1,-1,-1,-1,-1,-1,-1,-1,-1,-1,-1,-1,-1,-1,-1,-1,-1,-1,-1,-1,-1,-1,-1,-1,-1,-1,-1,-1,-1,-1],"loss_changes":[9.187994E3,2.033541E3,1.5501084E3,3.0027783E2,4.2117746E2,3.7605298E2,1.0396484E2,1.222854E2,7.2302246E1,1.305296E2,1.4172849E2,3.194463E2,2.6994305E1,0E0,0E0,1.5602966E1,1.6004272E1,4.6159912E1,4.990747E1,1.1806488E1,1.1120819E2,5.4025444E1,8.52841E1,6.835028E1,1.7203003E2,1.3641891E0,2.9217892E0,0E0,0E0,0E0,7.9293823E0,1.9885254E1,2.0053589E1,1.9709656E1,1.5989189E1,7.880249E0,0E0,1.5353394E-1,5.4708412E1,3.5869064E1,4.5790024E1,5.1914787E0,1.4403943E2,3.537683E1,2.8520846E0,1.1082937E1,1.7258789E2,4.391327E-1,0E0,6.878281E-2,2.0071678E-3,0E0,0E0,0E0,0E0,0E0,0E0,0E0,0E0,0E0,0E0,0E0,0E0,0E0,0E0,0E0,0E0,0E0,0E0,0E0,0E0,0E0,0E0,0E0,0E0,0E0,0E0,0E0,0E0,0E0,0E0,0E0,0E0,0E0,0E0,0E0,0E0,0E0,0E0],"parents":[2147483647,0,0,1,1,2,2,3,3,4,4,5,5,6,6,7,7,8,8,9,9,10,10,11,11,12,12,15,15,16,16,17,17,18,18,19,19,20,20,21,21,22,22,23,23,24,24,25,25,26,26,30,30,31,31,32,32,33,33,34,34,35,35,37,37,38,38,39,39,40,40,41,41,42,42,43,43,44,44,45,45,46,46,47,47,49,49,50,50],"right_children":[2,4,6,8,10,12,14,16,18,20,22,24,26,-1,-1,28,30,32,34,36,38,40,42,44,46,48,50,-1,-1,-1,52,54,56,58,60,62,-1,64,66,68,70,72,74,76,78,80,82,84,-1,86,88,-1,-1,-1,-1,-1,-1,-1,-1,-1,-1,-1,-1,-1,-1,-1,-1,-1,-1,-1,-1,-1,-1,-1,-1,-1,-1,-1,-1,-1,-1,-1,-1,-1,-1,-1,-1,-1,-1],"split_conditions":[2.21346E1,1.16592E1,4.20804E1,6.5718E0,-1.1059546E1,2.41E2,1.0342285E2,-9.454902E1,-7.6594667E0,-4.4745846E1,1.59404E1,2.80184E1,4.16E2,4.4535398E-1,7.0790756E-1,-1.575E0,-6.940179E0,2.21809E5,1.7026728E1,1.87682E1,1.3204422E1,1E0,-3.1173841E1,2.308E3,-4.0063972E1,-5.3768085E1,3.31418E1,-9.192064E-2,-4.307998E-1,-2.4680524E-1,9.02299E0,1.4422797E1,-3.2355404E1,5.7565083E1,-3.3802193E1,1.11135E5,-5.7139006E-2,4.1804474E1,2.1419218E1,2.23107E5,5.6826E0,5.4705E1,4.5985055E0,2.172496E1,4.313299E0,2.00886E1,1.80306E1,-4.860492E1,-3.501912E-2,1.80306E1,1.5939E1,-1.9397852E-1,-8.369404E-2,-1.4334702E-1,-2.9365603E-2,-2.6123464E-1,-1.7974234E-1,-1.5625323E-1,-1.0122996E-1,-1.1325412E-1,-5.013324E-2,-2.3217583E-2,-1.9322883E-1,-2.2377439E-1,-6.346746E-2,-6.744865E-2,1.8046698E-2,2.0918844E-2,-7.094408E-2,-2.4572734E-2,1.4798288E-1,-6.440394E-2,1.4736493E-2,4.475772E-2,2.0342343E-1,1.3914175E-1,2.1410346E-1,4.8891418E-2,-1.4887238E-3,1.0000054E-1,-8.3673E-3,2.6116627E-1,4.7189742E-1,-8.905529E-2,-2.0442605E-2,6.7789815E-2,1.8351937E-2,-3.4013272E-3,-3.0388832E-4],"split_indices":[12,12,12,12,19,23,20,20,19,19,12,12,11,0,0,0,19,7,24,12,17,25,20,11,20,20,12,0,0,0,24,18,20,20,20,6,0,20,17,7,0,0,16,24,16,0,0,2,0,0,0,0,0,0,0,0,0,0,0,0,0,0,0,0,0,0,0,0,0,0,0,0,0,0,0,0,0,0,0,0,0,0,0,0,0,0,0,0,0],"split_type":[0,0,0,0,0,0,0,0,0,0,0,0,0,0,0,0,0,0,0,0,0,0,0,0,0,0,0,0,0,0,0,0,0,0,0,0,0,0,0,0,0,0,0,0,0,0,0,0,0,0,0,0,0,0,0,0,0,0,0,0,0,0,0,0,0,0,0,0,0,0,0,0,0,0,0,0,0,0,0,0,0,0,0,0,0,0,0,0,0],"sum_hessian":[1.025E3,7.38E2,2.87E2,3.64E2,3.74E2,2.54E2,3.3E1,1.07E2,2.57E2,1.18E2,2.56E2,2.34E2,2E1,2.1E1,1.2E1,1.1E1,9.6E1,1.01E2,1.56E2,3E1,8.8E1,7.6E1,1.8E2,1.08E2,1.26E2,1.1E1,9E0,1E0,1E1,5.9E1,3.7E1,3.7E1,6.4E1,1.1E2,4.6E1,2.7E1,3E0,9E0,7.9E1,6.2E1,1.4E1,1.7E1,1.63E2,9.6E1,1.2E1,1.1E1,1.15E2,5E0,6E0,7E0,2E0,3.3E1,4E0,3.2E1,5E0,1.9E1,4.5E1,7.9E1,3.1E1,1.8E1,2.8E1,1E0,2.6E1,8E0,1E0,5E1,2.9E1,1.3E1,4.9E1,8E0,6E0,1.5E1,2E0,1.48E2,1.5E1,6.8E1,2.8E1,8E0,4E0,8E0,3E0,1.03E2,1.2E1,4E0,1E0,6E0,1E0,1E0,1E0],"tree_param":{"num_deleted":"0","num_feature":"28","num_nodes":"89","size_leaf_vector":"1"}},{"base_weights":[1.1751427E-1,-1.4603373E0,5.2633443E0,-3.0248E0,3.4285146E-1,4.354882E0,1.0382046E1,-4.496017E0,-2.4710011E0,-4.9910733E-1,1.308061E0,4.3504807E-1,4.011724E0,4.183224E-1,6.7740345E-1,-6.5973606E0,-4.050541E0,-4.424895E0,-2.2870643E0,3.4322622E-1,-1.4275738E0,1.047976E0,4.32846E0,1.9180822E-1,4.291199E0,-1.1830368E-1,-7.28588E0,-3.5109744E0,-4.596153E0,-3.5264698E-1,-3.5884607E0,-2.692679E0,-1.2261074E0,-8.3057845E-1,9.960678E-1,-2.875791E0,-1.0364428E0,2.25949E0,5.818087E-1,8.7723956E-2,2.3184793E-1,-4.1926202E-1,2.572153E0,3.2871704E0,5.33924E0,-4.4403836E-1,-2.617935E-1,-7.191706E-2,-1.8042581E-1,-2.3208614E-1,-6.591644E-2,-1.8847004E-1,-6.2317755E-2,-1.8554336E-1,-1.1217481E-1,-8.238911E-2,1.1183363E-1,-7.251911E-2,-1.1561311E-2,4.0827025E-2,1.7873032E-1,-1.4750141E-1,-3.8488127E-2,-6.0209062E-2,7.595924E-2,1.4772108E-1,-3.4703795E-2,-2.7017554E-2,7.334695E-2,1.6129857E-2,-4.152581E-2,1.5917058E-1,3.3740904E-2,1.417254E-1,2.5720516E-1,1.1703479E-1,2.924067E-1],"categories":[],